svm_type c_svc
kernel_type rbf
gamma 0.1111111111111111
nr_class 8
total_sv 1327
rho 0.2619164235697662 -0.10329088568687436 0.34886971124893945 0.1537429021756072 -0.1361359507655573 0.5291333965024432 -0.32132810540350903 -0.4692594077353182 0.026535415761807325 -0.134279085261438 -0.39059533554400266 0.20506452295404212 -0.63634414609371 0.42077380018226435 0.2992593295146806 -0.13040487623944588 0.7423983395851901 -0.13557869466968042 -0.11955785801865822 -0.4750901454785758 0.3509521748275068 -0.39742690008882303 -0.48140970553527634 0.31363774471857153 -0.42400287420126176 0.5604949841860544 -0.12117530083126128 -0.7140097395976758
label 2 3 4 6 7 8 9 1
nr_sv 199 152 114 208 179 120 213 142
SV
0.0 0.0 0.0 0.0 0.0 0.0 1.0 1:0.21621622 2:0.5675676 3:0.027027028 4:0.027027028 5:0.0 6:0.13513513 7:0.027027028 8:0.0 9:0.0 
0.0 0.0 0.0 0.0 0.0 0.0 1.0 1:0.19444445 2:0.5833333 3:0.027777778 4:0.027777778 5:0.0 6:0.1388889 7:0.027777778 8:0.0 9:0.0 
0.0 1.0 0.0 0.0 0.0 0.0 0.0 1:0.0 2:0.5 3:0.1 4:0.2 5:0.0 6:0.1 7:0.0 8:0.0 9:0.1 
0.0 0.0 0.0 0.0 0.0 1.0 0.0 1:0.0 2:0.5555556 3:0.0 4:0.0 5:0.0 6:0.11111111 7:0.0 8:0.0 9:0.33333334 
0.0 0.0 1.0 0.0 0.0 0.0 0.0 1:0.0 2:0.5882353 3:0.0 4:0.0 5:0.0 6:0.3529412 7:0.0 8:0.0 9:0.05882353 
0.0 0.0 0.0 0.0 0.279675035743076 0.0 1.0 1:0.1904762 2:0.47619048 3:0.04761905 4:0.0 5:0.0 6:0.04761905 7:0.0 8:0.14285715 9:0.0952381 
1.0 1.0 1.0 1.0 1.0 1.0 1.0 1:0.0 2:0.32142857 3:0.0 4:0.035714287 5:0.0 6:0.071428575 7:0.071428575 8:0.42857143 9:0.071428575 
1.0 1.0 0.0 1.0 1.0 1.0 1.0 1:0.0 2:0.33333334 3:0.0 4:0.11111111 5:0.0 6:0.0 7:0.0 8:0.5555556 9:0.0 
0.0 0.0 1.0 0.0 0.0 0.0 0.0 1:0.041666668 2:0.45833334 3:0.041666668 4:0.041666668 5:0.0 6:0.25 7:0.041666668 8:0.041666668 9:0.083333336 
0.0 0.0 1.0 1.0 0.0 1.0 0.0 1:0.019607844 2:0.4117647 3:0.019607844 4:0.039215688 5:0.0 6:0.3529412 7:0.078431375 8:0.0 9:0.078431375 
1.0 1.0 1.0 1.0 1.0 1.0 1.0 1:0.0 2:0.30769232 3:0.07692308 4:0.07692308 5:0.0 6:0.0 7:0.3846154 8:0.0 9:0.15384616 
1.0 1.0 1.0 1.0 1.0 1.0 1.0 1:0.08 2:0.28 3:0.04 4:0.04 5:0.0 6:0.08 7:0.12 8:0.24 9:0.12 
0.0 0.0 1.0 0.0 0.0 0.0 0.0 1:0.06521739 2:0.45652175 3:0.0 4:0.0 5:0.0 6:0.39130434 7:0.04347826 8:0.04347826 9:0.0 
1.0 0.0 0.0 1.0 0.30978968797887385 1.0 1.0 1:0.3 2:0.35 3:0.1 4:0.0 5:0.0 6:0.0 7:0.05 8:0.05 9:0.15 
1.0 0.0 0.0 0.0 0.0 1.0 1.0 1:0.074074075 2:0.37037036 3:0.33333334 4:0.0 5:0.0 6:0.074074075 7:0.037037037 8:0.037037037 9:0.074074075 
0.0 1.0 0.0 0.0 0.0 1.0 1.0 1:0.15 2:0.45 3:0.05 4:0.15 5:0.0 6:0.05 7:0.05 8:0.0 9:0.1 
0.0 0.0 1.0 1.0 0.0 0.0 0.0 1:0.05882353 2:0.47058824 3:0.0 4:0.0 5:0.0 6:0.29411766 7:0.11764706 8:0.05882353 9:0.0 
0.0 0.0 1.0 0.0 0.0 0.0 0.0 1:0.0 2:0.55 3:0.05 4:0.0 5:0.0 6:0.25 7:0.1 8:0.05 9:0.0 
0.0 0.0 0.0 0.0 0.0 0.0 1.0 1:0.083333336 2:0.47916666 3:0.083333336 4:0.020833334 5:0.0 6:0.125 7:0.0 8:0.125 9:0.083333336 
1.0 1.0 0.0 0.0 0.0 1.0 0.0 1:0.0 2:0.42105263 3:0.10526316 4:0.10526316 5:0.0 6:0.05263158 7:0.0 8:0.0 9:0.31578946 
0.0 0.0 1.0 0.0 0.0 0.0 0.0 1:0.0 2:0.5833333 3:0.0 4:0.083333336 5:0.0 6:0.25 7:0.0 8:0.0 9:0.083333336 
1.0 1.0 1.0 1.0 1.0 1.0 1.0 1:0.033333335 2:0.16666667 3:0.0 4:0.13333334 5:0.0 6:0.43333334 7:0.13333334 8:0.033333335 9:0.06666667 
0.0 0.0 0.0 0.0 0.0 0.12047809370102265 1.0 1:0.16666667 2:0.5 3:0.125 4:0.0 5:0.0 6:0.041666668 7:0.041666668 8:0.0 9:0.125 
0.0 0.0 1.0 0.0 0.0 0.0 0.0 1:0.0 2:0.62068963 3:0.0 4:0.0 5:0.0 6:0.3448276 7:0.0 8:0.0 9:0.03448276 
1.0 1.0 1.0 1.0 1.0 1.0 1.0 1:0.05882353 2:0.29411766 3:0.05882353 4:0.05882353 5:0.0 6:0.11764706 7:0.05882353 8:0.23529412 9:0.11764706 
0.0 0.0 1.0 1.0 0.0 1.0 0.0 1:0.0 2:0.35 3:0.05 4:0.0 5:0.0 6:0.45 7:0.1 8:0.0 9:0.05 
0.0 0.0 1.0 0.0 0.0 0.0 1.0 1:0.11111111 2:0.44444445 3:0.0 4:0.0 5:0.0 6:0.2777778 7:0.0 8:0.11111111 9:0.055555556 
0.0 0.0 1.0 0.0 0.0 0.0 0.0 1:0.0 2:0.4181818 3:0.036363635 4:0.0 5:0.0 6:0.43636364 7:0.018181818 8:0.036363635 9:0.054545455 
0.0 0.0 1.0 1.0 0.0 1.0 0.0 1:0.022222223 2:0.37777779 3:0.044444446 4:0.022222223 5:0.0 6:0.37777779 7:0.022222223 8:0.044444446 9:0.08888889 
1.0 1.0 1.0 1.0 1.0 1.0 1.0 1:0.05 2:0.15 3:0.2 4:0.05 5:0.0 6:0.2 7:0.0 8:0.05 9:0.3 
0.0 0.0 1.0 1.0 1.0 1.0 0.0 1:0.0 2:0.4 3:0.028571429 4:0.0 5:0.0 6:0.37142858 7:0.057142857 8:0.057142857 9:0.08571429 
0.0 0.0 1.0 1.0 0.0 0.0 0.0 1:0.0 2:0.44444445 3:0.0 4:0.0 5:0.0 6:0.33333334 7:0.11111111 8:0.027777778 9:0.083333336 
0.0 0.0 1.0 0.0 0.0 1.0 0.0 1:0.0 2:0.47368422 3:0.05263158 4:0.0 5:0.0 6:0.2631579 7:0.05263158 8:0.0 9:0.15789473 
1.0 1.0 0.0 0.0 0.0 1.0 1.0 1:0.14285715 2:0.42857143 3:0.21428572 4:0.071428575 5:0.0 6:0.071428575 7:0.0 8:0.0 9:0.071428575 
0.0 0.0 1.0 0.0 0.0 0.0 0.0 1:0.0 2:0.5 3:0.083333336 4:0.0 5:0.0 6:0.33333334 7:0.083333336 8:0.0 9:0.0 
0.0 0.0 0.0 0.0 0.0 0.0 1.0 1:0.25 2:0.55 3:0.05 4:0.05 5:0.0 6:0.1 7:0.0 8:0.0 9:0.0 
1.0 1.0 0.0 0.0 0.0 1.0 1.0 1:0.14285715 2:0.42857143 3:0.21428572 4:0.071428575 5:0.0 6:0.071428575 7:0.0 8:0.0 9:0.071428575 
1.0 1.0 0.0 0.0 0.0 0.0 0.0 1:0.03448276 2:0.44827586 3:0.1724138 4:0.10344828 5:0.0 6:0.13793103 7:0.03448276 8:0.06896552 9:0.0 
0.0 0.0 1.0 0.0 0.0 1.0 1.0 1:0.11111111 2:0.3888889 3:0.055555556 4:0.0 5:0.0 6:0.22222222 7:0.0 8:0.0 9:0.22222222 
0.0 0.0 0.0 0.0 0.0 0.0 1.0 1:0.16666667 2:0.5833333 3:0.0 4:0.0 5:0.0 6:0.16666667 7:0.083333336 8:0.0 9:0.0 
0.0 0.0 1.0 0.0 0.0 0.0 0.0 1:0.0 2:0.5 3:0.0 4:0.0 5:0.0 6:0.5 7:0.0 8:0.0 9:0.0 
0.0 0.0 1.0 0.0 0.0 0.0 0.0 1:0.0 2:0.5555556 3:0.0 4:0.0 5:0.0 6:0.22222222 7:0.0 8:0.0 9:0.22222222 
0.0 0.0 0.0 0.0 0.0 1.0 0.0 1:0.0 2:0.5 3:0.125 4:0.0 5:0.0 6:0.0 7:0.041666668 8:0.0 9:0.33333334 
0.0 1.0 0.0 0.0 0.0 0.0 0.0 1:0.0 2:0.5 3:0.125 4:0.1875 5:0.0 6:0.0 7:0.0 8:0.125 9:0.0625 
0.0 0.0 1.0 0.0 0.0 0.0 0.0 1:0.0 2:0.61290324 3:0.0 4:0.032258064 5:0.0 6:0.29032257 7:0.032258064 8:0.0 9:0.032258064 
1.0 0.0 0.0 0.9767439318788993 0.0 1.0 1.0 1:0.10526316 2:0.36842105 3:0.31578946 4:0.0 5:0.0 6:0.10526316 7:0.05263158 8:0.0 9:0.05263158 
0.0 0.0 1.0 0.0 0.0 0.0 0.0 1:0.0 2:0.55 3:0.0 4:0.05 5:0.0 6:0.4 7:0.0 8:0.0 9:0.0 
1.0 1.0 1.0 1.0 1.0 1.0 1.0 1:0.0 2:0.23076923 3:0.115384616 4:0.0 5:0.0 6:0.1923077 7:0.30769232 8:0.0 9:0.15384616 
1.0 0.0 0.0 0.0 0.0 0.0 0.0 1:0.0 2:0.5714286 3:0.21428572 4:0.0 5:0.0 6:0.0 7:0.071428575 8:0.0 9:0.14285715 
0.0 0.0 0.0 0.0 0.0 0.0 1.0 1:0.16666667 2:0.5 3:0.083333336 4:0.0 5:0.0 6:0.083333336 7:0.041666668 8:0.041666668 9:0.083333336 
0.0 1.0 1.0 0.0 0.0 1.0 0.0 1:0.0 2:0.42857143 3:0.0 4:0.21428572 5:0.0 6:0.14285715 7:0.0 8:0.0 9:0.21428572 
0.0 0.0 1.0 0.0 0.0 0.0 0.0 1:0.0 2:0.4375 3:0.125 4:0.0 5:0.0 6:0.3125 7:0.0625 8:0.0 9:0.0625 
0.0 1.0 1.0 0.0 0.0 1.0 0.0 1:0.0 2:0.42857143 3:0.0 4:0.21428572 5:0.0 6:0.14285715 7:0.0 8:0.0 9:0.21428572 
0.0 0.0 0.0 0.0 0.0 1.0 0.0 1:0.0 2:0.56666666 3:0.13333334 4:0.033333335 5:0.0 6:0.0 7:0.0 8:0.06666667 9:0.2 
0.0 0.0 1.0 0.0 0.0 0.0 0.0 1:0.0 2:0.61904764 3:0.0 4:0.04761905 5:0.0 6:0.2857143 7:0.0 8:0.0 9:0.04761905 
1.0 1.0 1.0 1.0 1.0 1.0 1.0 1:0.14285715 2:0.21428572 3:0.0 4:0.21428572 5:0.0 6:0.14285715 7:0.14285715 8:0.0 9:0.14285715 
1.0 0.0 0.0 0.0 0.0 0.0 0.0 1:0.04 2:0.56 3:0.24 4:0.04 5:0.0 6:0.0 7:0.0 8:0.04 9:0.08 
0.0 0.0 1.0 0.0 0.0 0.0 0.0 1:0.037037037 2:0.5925926 3:0.037037037 4:0.074074075 5:0.0 6:0.25925925 7:0.0 8:0.0 9:0.0 
1.0 1.0 1.0 1.0 1.0 1.0 0.0 1:0.022727273 2:0.25 3:0.022727273 4:0.022727273 5:0.0 6:0.4318182 7:0.22727273 8:0.0 9:0.022727273 
0.0 0.0 1.0 0.0 0.0 0.0 0.0 1:0.0 2:0.6315789 3:0.0 4:0.0 5:0.0 6:0.31578946 7:0.0 8:0.0 9:0.05263158 
1.0 1.0 1.0 1.0 1.0 1.0 0.0 1:0.0 2:0.23076923 3:0.0 4:0.0 5:0.0 6:0.3846154 7:0.23076923 8:0.0 9:0.15384616 
0.0 1.0 1.0 0.0 0.0 1.0 0.0 1:0.0 2:0.375 3:0.0625 4:0.0625 5:0.0 6:0.3125 7:0.0 8:0.0 9:0.1875 
0.0 0.0 1.0 0.0 0.0 0.0 0.0 1:0.0 2:0.53846157 3:0.07692308 4:0.0 5:0.0 6:0.30769232 7:0.0 8:0.07692308 9:0.0 
0.0 0.0 0.0 1.0 1.0 1.0 1.0 1:0.0 2:0.35 3:0.0 4:0.05 5:0.0 6:0.0 7:0.0 8:0.6 9:0.0 
0.0 1.0 1.0 0.0 0.0 0.0 0.0 1:0.06666667 2:0.4 3:0.0 4:0.06666667 5:0.0 6:0.4 7:0.0 8:0.0 9:0.06666667 
0.0 0.0 1.0 0.0 0.0 1.0 0.0 1:0.0 2:0.5 3:0.0 4:0.0 5:0.0 6:0.16666667 7:0.0 8:0.0 9:0.33333334 
1.0 1.0 1.0 1.0 1.0 1.0 1.0 1:0.0 2:0.09090909 3:0.18181819 4:0.0 5:0.0 6:0.36363637 7:0.09090909 8:0.0 9:0.27272728 
0.0 0.0 1.0 0.0 0.0 0.0 0.0 1:0.0 2:0.5 3:0.045454547 4:0.0 5:0.0 6:0.22727273 7:0.09090909 8:0.0 9:0.13636364 
0.0 1.0 1.0 0.0 0.0 1.0 0.0 1:0.0 2:0.42857143 3:0.0 4:0.14285715 5:0.0 6:0.14285715 7:0.0 8:0.0 9:0.2857143 
0.0 0.0 0.0 0.0 0.0 0.0 1.0 1:0.13333334 2:0.53333336 3:0.033333335 4:0.033333335 5:0.0 6:0.2 7:0.0 8:0.0 9:0.06666667 
0.0 0.0 1.0 0.0 0.0 0.0 0.0 1:0.0 2:0.61764705 3:0.0 4:0.0 5:0.0 6:0.29411766 7:0.0 8:0.0882353 9:0.0 
1.0 0.0 0.0 0.0 0.0 1.0 0.0 1:0.0 2:0.46153846 3:0.15384616 4:0.0 5:0.0 6:0.0 7:0.0 8:0.0 9:0.3846154 
1.0 1.0 1.0 1.0 1.0 1.0 1.0 1:0.05 2:0.25 3:0.0 4:0.05 5:0.0 6:0.3 7:0.05 8:0.1 9:0.2 
0.0 0.0 0.0 0.0 0.0 0.0 1.0 1:0.25 2:0.5 3:0.083333336 4:0.0 5:0.0 6:0.041666668 7:0.041666668 8:0.041666668 9:0.041666668 
0.0 0.0 1.0 0.0 0.0 1.0 0.0 1:0.05 2:0.45 3:0.0 4:0.0 5:0.0 6:0.15 7:0.0 8:0.05 9:0.3 
0.0 0.0 0.0 0.0 0.0 0.0 1.0 1:0.13333334 2:0.46666667 3:0.06666667 4:0.033333335 5:0.0 6:0.1 7:0.033333335 8:0.1 9:0.06666667 
1.0 1.0 1.0 0.0 1.0 1.0 1.0 1:0.125 2:0.33333334 3:0.083333336 4:0.083333336 5:0.0 6:0.125 7:0.0 8:0.125 9:0.125 
0.0 0.0 1.0 1.0 0.0 0.0 1.0 1:0.09756097 2:0.46341464 3:0.048780486 4:0.0 5:0.0 6:0.14634146 7:0.17073171 8:0.048780486 9:0.024390243 
0.0 0.0 1.0 1.0 0.0 0.0 1.0 1:0.13043478 2:0.47826087 3:0.0 4:0.0 5:0.0 6:0.08695652 7:0.3043478 8:0.0 9:0.0 
0.8024815356799739 0.0 1.0 1.0 1.0 1.0 1.0 1:0.2 2:0.36 3:0.0 4:0.0 5:0.0 6:0.08 7:0.28 8:0.04 9:0.04 
1.0 1.0 1.0 0.9693741834928119 1.0 1.0 1.0 1:0.125 2:0.33333334 3:0.083333336 4:0.083333336 5:0.0 6:0.125 7:0.0 8:0.125 9:0.125 
0.0 0.0 0.0 0.0 1.0 0.0 0.0 1:0.083333336 2:0.5 3:0.027777778 4:0.0 5:0.0 6:0.055555556 7:0.0 8:0.25 9:0.083333336 
0.0 0.0 0.0 0.0 0.0 0.0 1.0 1:0.16666667 2:0.56666666 3:0.033333335 4:0.0 5:0.0 6:0.13333334 7:0.0 8:0.033333335 9:0.06666667 
0.0 0.0 0.0 0.0 0.0 0.0 1.0 1:0.27272728 2:0.6363636 3:0.0 4:0.0 5:0.0 6:0.09090909 7:0.0 8:0.0 9:0.0 
1.0 0.0 1.0 1.0 1.0 1.0 1.0 1:0.08064516 2:0.3548387 3:0.048387095 4:0.016129032 5:0.0 6:0.14516129 7:0.0 8:0.30645162 9:0.048387095 
0.0 0.0 0.0 0.0 0.0 0.0 1.0 1:0.2631579 2:0.5263158 3:0.0 4:0.0 5:0.0 6:0.10526316 7:0.0 8:0.05263158 9:0.05263158 
1.0 1.0 1.0 1.0 1.0 1.0 1.0 1:0.083333336 2:0.125 3:0.0 4:0.041666668 5:0.0 6:0.041666668 7:0.375 8:0.25 9:0.083333336 
0.0 0.0 0.0 0.0 0.0 0.0 1.0 1:0.21052632 2:0.6315789 3:0.10526316 4:0.0 5:0.0 6:0.05263158 7:0.0 8:0.0 9:0.0 
0.0 0.0 0.0 0.0 0.0 0.0 1.0 1:0.27272728 2:0.54545456 3:0.0 4:0.0 5:0.0 6:0.18181819 7:0.0 8:0.0 9:0.0 
0.0 0.0 1.0 1.0 1.0 1.0 0.0 1:0.018867925 2:0.35849056 3:0.018867925 4:0.0 5:0.0 6:0.43396226 7:0.11320755 8:0.03773585 9:0.018867925 
1.0 0.0 0.0 0.0 0.0 1.0 1.0 1:0.083333336 2:0.41666666 3:0.33333334 4:0.0 5:0.0 6:0.0 7:0.0 8:0.083333336 9:0.083333336 
1.0 0.0 0.0 0.0 0.0 0.0 0.0 1:0.05882353 2:0.5294118 3:0.23529412 4:0.0 5:0.0 6:0.1764706 7:0.0 8:0.0 9:0.0 
1.0 1.0 1.0 1.0 1.0 1.0 1.0 1:0.023809524 2:0.21428572 3:0.023809524 4:0.023809524 5:0.0 6:0.3809524 7:0.1904762 8:0.023809524 9:0.11904762 
1.0 1.0 1.0 1.0 1.0 1.0 1.0 1:0.0 2:0.18181819 3:0.0 4:0.0 5:0.0 6:0.09090909 7:0.18181819 8:0.09090909 9:0.45454547 
1.0 0.0 0.0 0.0 0.0 1.0 1.0 1:0.055555556 2:0.44444445 3:0.33333334 4:0.0 5:0.0 6:0.055555556 7:0.055555556 8:0.0 9:0.055555556 
1.0 1.0 1.0 1.0 1.0 1.0 1.0 1:0.0 2:0.13333334 3:0.044444446 4:0.022222223 5:0.0 6:0.17777778 7:0.33333334 8:0.0 9:0.2888889 
0.0 0.0 1.0 0.0 0.0 0.0 0.0 1:0.0 2:0.6052632 3:0.02631579 4:0.02631579 5:0.0 6:0.31578946 7:0.02631579 8:0.0 9:0.0 
0.0 0.0 0.0 0.0 1.0 1.0 1.0 1:0.0625 2:0.4375 3:0.0625 4:0.0625 5:0.0 6:0.0 7:0.0 8:0.25 9:0.125 
0.0 0.0 1.0 0.0 1.0 0.0 0.0 1:0.0 2:0.4 3:0.0 4:0.0 5:0.0 6:0.4 7:0.0 8:0.2 9:0.0 
0.0 0.0 0.0 0.0 0.0 0.0 0.6603775865546725 1:0.14285715 2:0.5714286 3:0.0 4:0.0 5:0.0 6:0.14285715 7:0.0 8:0.035714287 9:0.10714286 
1.0 1.0 1.0 0.0 0.0 1.0 0.0 1:0.0 2:0.46153846 3:0.15384616 4:0.07692308 5:0.0 6:0.15384616 7:0.0 8:0.0 9:0.15384616 
1.0 1.0 1.0 1.0 1.0 1.0 1.0 1:0.06666667 2:0.2 3:0.13333334 4:0.0 5:0.0 6:0.2 7:0.0 8:0.33333334 9:0.06666667 
1.0 1.0 1.0 1.0 1.0 1.0 0.0 1:0.0 2:0.2777778 3:0.11111111 4:0.0 5:0.0 6:0.33333334 7:0.11111111 8:0.0 9:0.16666667 
1.0 1.0 0.0 0.0 1.0 1.0 1.0 1:0.36363637 2:0.36363637 3:0.045454547 4:0.045454547 5:0.0 6:0.09090909 7:0.0 8:0.09090909 9:0.0 
0.0 1.0 1.0 1.0 1.0 1.0 1.0 1:0.114285715 2:0.34285715 3:0.0 4:0.028571429 5:0.0 6:0.22857143 7:0.2 8:0.08571429 9:0.0 
0.0 1.0 1.0 1.0 0.0 1.0 0.0 1:0.0 2:0.33333334 3:0.0 4:0.083333336 5:0.0 6:0.41666666 7:0.0 8:0.0 9:0.16666667 
1.0 0.0 0.0 0.0 0.0 1.0 0.0 1:0.0 2:0.47826087 3:0.17391305 4:0.0 5:0.0 6:0.04347826 7:0.04347826 8:0.08695652 9:0.17391305 
0.0 0.0 0.0 0.0 1.0 0.0 0.0 1:0.06666667 2:0.53333336 3:0.06666667 4:0.0 5:0.0 6:0.06666667 7:0.0 8:0.26666668 9:0.0 
0.0 0.0 0.0 0.0 0.0 0.0 1.0 1:0.125 2:0.5 3:0.0 4:0.0 5:0.0 6:0.175 7:0.025 8:0.025 9:0.15 
1.0 1.0 1.0 1.0 1.0 1.0 0.0 1:0.0 2:0.33333334 3:0.0 4:0.0 5:0.0 6:0.16666667 7:0.125 8:0.0 9:0.375 
1.0 1.0 1.0 1.0 1.0 1.0 0.0 1:0.0 2:0.3 3:0.0 4:0.1 5:0.0 6:0.2 7:0.0 8:0.0 9:0.4 
1.0 0.0 1.0 1.0 0.0 1.0 1.0 1:0.13043478 2:0.39130434 3:0.17391305 4:0.0 5:0.0 6:0.08695652 7:0.13043478 8:0.0 9:0.08695652 
0.0 0.0 0.0 0.0 0.0 1.0 1.0 1:0.14285715 2:0.5 3:0.071428575 4:0.0 5:0.0 6:0.071428575 7:0.0 8:0.0 9:0.21428572 
0.0 0.0 0.0 0.0 0.0 0.0 1.0 1:0.2 2:0.6 3:0.0 4:0.0 5:0.0 6:0.0 7:0.0 8:0.0 9:0.2 
0.0 0.0 1.0 1.0 1.0 1.0 0.0 1:0.0 2:0.4 3:0.04 4:0.04 5:0.0 6:0.12 7:0.32 8:0.0 9:0.08 
1.0 1.0 1.0 1.0 1.0 1.0 1.0 1:0.0 2:0.11764706 3:0.0 4:0.11764706 5:0.0 6:0.1764706 7:0.11764706 8:0.0 9:0.47058824 
0.0 0.0 1.0 0.0 0.0 0.0 0.0 1:0.0 2:0.5625 3:0.0 4:0.0 5:0.0 6:0.375 7:0.0 8:0.0 9:0.0625 
1.0 0.0 0.2598624296304331 0.0 0.0 0.0 1.0 1:0.37931034 2:0.37931034 3:0.06896552 4:0.0 5:0.0 6:0.1724138 7:0.0 8:0.0 9:0.0 
0.0 0.0 1.0 0.0 0.0 0.0 0.0 1:0.030303031 2:0.42424244 3:0.060606062 4:0.0 5:0.0 6:0.3939394 7:0.060606062 8:0.0 9:0.030303031 
1.0 1.0 1.0 1.0 1.0 1.0 1.0 1:0.0 2:0.22727273 3:0.09090909 4:0.0 5:0.0 6:0.3181818 7:0.18181819 8:0.0 9:0.18181819 
0.0 0.0 0.0 0.0 0.0 1.0 0.0 1:0.0 2:0.5555556 3:0.0 4:0.0 5:0.0 6:0.11111111 7:0.0 8:0.0 9:0.33333334 
0.0 0.0 0.0 0.0 0.0 0.0 1.0 1:0.25 2:0.55 3:0.0 4:0.0 5:0.0 6:0.15 7:0.0 8:0.05 9:0.0 
0.0 0.0 0.0 0.0 0.0 0.0 1.0 1:0.22222222 2:0.6111111 3:0.0 4:0.0 5:0.0 6:0.055555556 7:0.0 8:0.055555556 9:0.055555556 
0.0 0.0 0.0 0.0 0.0 0.0 1.0 1:0.16666667 2:0.5555556 3:0.027777778 4:0.0 5:0.0 6:0.055555556 7:0.19444445 8:0.0 9:0.0 
1.0 1.0 1.0 1.0 1.0 1.0 1.0 1:0.10526316 2:0.31578946 3:0.05263158 4:0.05263158 5:0.0 6:0.05263158 7:0.05263158 8:0.2631579 9:0.10526316 
1.0 1.0 1.0 1.0 1.0 1.0 0.0 1:0.0 2:0.26190478 3:0.0 4:0.04761905 5:0.0 6:0.33333334 7:0.2857143 8:0.0 9:0.071428575 
0.0 0.0 0.0 0.0 0.0 0.0 1.0 1:0.15384616 2:0.53846157 3:0.07692308 4:0.0 5:0.0 6:0.15384616 7:0.0 8:0.03846154 9:0.03846154 
1.0 0.0 0.0 0.0 1.0 1.0 1.0 1:0.22580644 2:0.38709676 3:0.16129032 4:0.032258064 5:0.0 6:0.0 7:0.0 8:0.16129032 9:0.032258064 
1.0 1.0 1.0 1.0 1.0 1.0 1.0 1:0.0 2:0.11764706 3:0.0 4:0.0 5:0.0 6:0.4117647 7:0.3529412 8:0.0 9:0.11764706 
1.0 1.0 1.0 1.0 1.0 1.0 1.0 1:0.0 2:0.18518518 3:0.037037037 4:0.074074075 5:0.0 6:0.2962963 7:0.14814815 8:0.18518518 9:0.074074075 
0.0 1.0 1.0 0.0 0.0 1.0 0.0 1:0.041666668 2:0.41666666 3:0.083333336 4:0.041666668 5:0.0 6:0.20833333 7:0.0 8:0.0 9:0.20833333 
1.0 1.0 1.0 1.0 0.0 1.0 1.0 1:0.1875 2:0.3125 3:0.0 4:0.0 5:0.0 6:0.125 7:0.0 8:0.0 9:0.375 
1.0 1.0 1.0 1.0 1.0 1.0 0.0 1:0.0 2:0.27659574 3:0.04255319 4:0.0 5:0.0 6:0.42553192 7:0.12765957 8:0.021276595 9:0.10638298 
1.0 0.0 0.0 0.0 0.0 0.0 0.0 1:0.0625 2:0.5 3:0.1875 4:0.0 5:0.0 6:0.0625 7:0.0625 8:0.0625 9:0.0625 
1.0 1.0 1.0 1.0 1.0 1.0 1.0 1:0.04 2:0.28 3:0.28 4:0.0 5:0.0 6:0.12 7:0.0 8:0.04 9:0.24 
1.0 0.6664727527266137 1.0 0.0 0.0 1.0 1.0 1:0.1632653 2:0.36734694 3:0.18367347 4:0.020408163 5:0.0 6:0.2244898 7:0.020408163 8:0.0 9:0.020408163 
0.0 0.0 1.0 0.0 0.0 0.0 0.0 1:0.08163265 2:0.53061223 3:0.040816326 4:0.020408163 5:0.0 6:0.30612245 7:0.0 8:0.020408163 9:0.0 
0.0 0.0 0.0 1.0 0.0 1.0 0.0 1:0.0 2:0.53571427 3:0.0 4:0.035714287 5:0.0 6:0.035714287 7:0.21428572 8:0.0 9:0.17857143 
0.0 0.0 1.0 0.0 0.0 0.0 1.0 1:0.21428572 2:0.42857143 3:0.0 4:0.0 5:0.0 6:0.35714287 7:0.0 8:0.0 9:0.0 
1.0 1.0 1.0 1.0 1.0 1.0 1.0 1:0.2 2:0.26666668 3:0.2 4:0.1 5:0.0 6:0.16666667 7:0.0 8:0.033333335 9:0.033333335 
0.1670318144828178 0.0 0.0 0.0 0.0 1.0 0.0 1:0.0 2:0.54545456 3:0.18181819 4:0.0 5:0.0 6:0.0 7:0.0 8:0.0 9:0.27272728 
0.0 0.0 0.0 0.0 0.0 0.0 1.0 1:0.16666667 2:0.5 3:0.0 4:0.0 5:0.0 6:0.16666667 7:0.0 8:0.0 9:0.16666667 
1.0 1.0 1.0 1.0 1.0 1.0 0.0 1:0.0 2:0.2857143 3:0.0 4:0.0 5:0.0 6:0.21428572 7:0.0 8:0.2857143 9:0.21428572 
1.0 1.0 1.0 1.0 1.0 1.0 1.0 1:0.0 2:0.0 3:0.0 4:0.0 5:0.0 6:0.0 7:0.0 8:0.0 9:1.0 
0.0 0.0 1.0 1.0 0.0 0.0 0.0 1:0.0 2:0.42105263 3:0.0 4:0.0 5:0.0 6:0.47368422 7:0.05263158 8:0.0 9:0.05263158 
1.0 0.0 0.0 0.0 0.0 1.0 1.0 1:0.055555556 2:0.44444445 3:0.22222222 4:0.0 5:0.0 6:0.16666667 7:0.0 8:0.0 9:0.11111111 
1.0 0.0 0.6390308367894514 1.0 1.0 1.0 1.0 1:0.10714286 2:0.35714287 3:0.17857143 4:0.0 5:0.0 6:0.071428575 7:0.071428575 8:0.071428575 9:0.14285715 
0.0 1.0 1.0 1.0 1.0 1.0 0.0 1:0.03846154 2:0.30769232 3:0.03846154 4:0.0 5:0.0 6:0.5 7:0.03846154 8:0.03846154 9:0.03846154 
1.0 0.0 1.0 1.0 0.0 1.0 0.0 1:0.03448276 2:0.41379312 3:0.1724138 4:0.0 5:0.0 6:0.20689656 7:0.06896552 8:0.06896552 9:0.03448276 
1.0 1.0 1.0 1.0 1.0 1.0 1.0 1:0.15789473 2:0.15789473 3:0.05263158 4:0.05263158 5:0.0 6:0.05263158 7:0.05263158 8:0.0 9:0.47368422 
1.0 1.0 1.0 0.0 0.0 1.0 0.0 1:0.0 2:0.42307693 3:0.23076923 4:0.07692308 5:0.0 6:0.23076923 7:0.0 8:0.0 9:0.03846154 
0.0 0.0 1.0 1.0 1.0 0.0 0.0 1:0.0 2:0.36363637 3:0.0 4:0.0 5:0.0 6:0.54545456 7:0.045454547 8:0.045454547 9:0.0 
1.0 1.0 1.0 0.0 0.0 1.0 0.0 1:0.0 2:0.4 3:0.24 4:0.04 5:0.0 6:0.28 7:0.04 8:0.0 9:0.0 
0.0 0.0 1.0 0.0 0.0 0.0 0.0 1:0.0 2:0.5294118 3:0.05882353 4:0.0 5:0.0 6:0.29411766 7:0.0 8:0.0 9:0.11764706 
0.0 1.0 1.0 1.0 1.0 1.0 0.0 1:0.0 2:0.3809524 3:0.04761905 4:0.04761905 5:0.0 6:0.2857143 7:0.04761905 8:0.0952381 9:0.0952381 
0.0 0.0 1.0 0.0 0.0 0.0 0.0 1:0.075 2:0.45 3:0.0 4:0.025 5:0.0 6:0.375 7:0.025 8:0.05 9:0.0 
1.0 1.0 0.0 0.0 0.0 1.0 1.0 1:0.0 2:0.3809524 3:0.3809524 4:0.04761905 5:0.0 6:0.0952381 7:0.0 8:0.0 9:0.0952381 
1.0 1.0 1.0 1.0 1.0 1.0 0.0 1:0.0 2:0.2 3:0.2 4:0.0 5:0.0 6:0.6 7:0.0 8:0.0 9:0.0 
1.0 1.0 1.0 1.0 1.0 1.0 1.0 1:0.39130434 2:0.26086956 3:0.13043478 4:0.0 5:0.0 6:0.13043478 7:0.0 8:0.04347826 9:0.04347826 
0.0 0.0 1.0 0.0 0.0 0.0 1.0 1:0.10714286 2:0.39285713 3:0.071428575 4:0.0 5:0.0 6:0.35714287 7:0.035714287 8:0.0 9:0.035714287 
0.0 0.0 1.0 0.0 0.0 0.0 0.0 1:0.08 2:0.48 3:0.12 4:0.0 5:0.0 6:0.2 7:0.0 8:0.04 9:0.08 
0.0 1.0 1.0 1.0 0.0 1.0 1.0 1:0.14705883 2:0.32352942 3:0.029411765 4:0.0882353 5:0.0 6:0.38235295 7:0.0 8:0.0 9:0.029411765 
0.0 0.0 1.0 0.0 0.0 0.0 0.0 1:0.0 2:0.5555556 3:0.0 4:0.0 5:0.0 6:0.22222222 7:0.0 8:0.0 9:0.22222222 
0.0 0.0 1.0 0.0 0.0 1.0 0.0 1:0.0 2:0.46666667 3:0.13333334 4:0.0 5:0.0 6:0.26666668 7:0.0 8:0.0 9:0.13333334 
1.0 0.0 0.0 0.0 1.0 1.0 1.0 1:0.07692308 2:0.3846154 3:0.30769232 4:0.0 5:0.0 6:0.07692308 7:0.0 8:0.15384616 9:0.0 
1.0 1.0 1.0 1.0 1.0 1.0 1.0 1:0.0 2:0.29032257 3:0.0 4:0.032258064 5:0.0 6:0.12903225 7:0.19354838 8:0.0 9:0.3548387 
1.0 0.0 0.0 0.0 0.0 1.0 0.0 1:0.0 2:0.4827586 3:0.2413793 4:0.0 5:0.0 6:0.10344828 7:0.0 8:0.0 9:0.1724138 
1.0 0.3335272472733864 1.0 0.0 1.0 1.0 1.0 1:0.23684211 2:0.34210527 3:0.05263158 4:0.02631579 5:0.0 6:0.13157895 7:0.02631579 8:0.15789473 9:0.02631579 
0.0 0.0 1.0 0.0 0.0 0.0 0.0 1:0.0 2:0.54545456 3:0.0 4:0.0 5:0.0 6:0.36363637 7:0.0 8:0.09090909 9:0.0 
1.0 0.0 0.0 1.0 1.0 1.0 1.0 1:0.07692308 2:0.3846154 3:0.23076923 4:0.0 5:0.0 6:0.07692308 7:0.07692308 8:0.07692308 9:0.07692308 
0.08496977273547486 0.0 1.0 1.0 0.0 1.0 0.0 1:0.028571429 2:0.4 3:0.057142857 4:0.0 5:0.0 6:0.14285715 7:0.028571429 8:0.0 9:0.34285715 
1.0 0.0 0.0 0.0 0.0 1.0 1.0 1:0.09090909 2:0.5 3:0.18181819 4:0.0 5:0.0 6:0.045454547 7:0.0 8:0.0 9:0.18181819 
1.0 1.0 1.0 1.0 1.0 1.0 1.0 1:0.14285715 2:0.21428572 3:0.21428572 4:0.0 5:0.0 6:0.14285715 7:0.071428575 8:0.0 9:0.21428572 
1.0 1.0 1.0 1.0 1.0 1.0 1.0 1:0.0 2:0.2777778 3:0.11111111 4:0.0 5:0.0 6:0.22222222 7:0.055555556 8:0.027777778 9:0.30555555 
0.0 0.0 1.0 0.0 0.0 0.0 0.0 1:0.0 2:0.54545456 3:0.045454547 4:0.0 5:0.0 6:0.27272728 7:0.045454547 8:0.0 9:0.09090909 
0.38748492061683254 1.0 1.0 1.0 0.0 1.0 1.0 1:0.11111111 2:0.33333334 3:0.055555556 4:0.0 5:0.0 6:0.3888889 7:0.055555556 8:0.0 9:0.055555556 
1.0 0.0 1.0 0.0 0.0 1.0 0.0 1:0.032258064 2:0.4516129 3:0.16129032 4:0.032258064 5:0.0 6:0.16129032 7:0.0 8:0.06451613 9:0.09677419 
0.0 0.0 1.0 0.0 0.0 0.0 0.0 1:0.0 2:0.4390244 3:0.024390243 4:0.0 5:0.0 6:0.41463414 7:0.024390243 8:0.024390243 9:0.07317073 
1.0 1.0 1.0 1.0 0.0 1.0 0.0 1:0.0 2:0.35 3:0.05 4:0.05 5:0.0 6:0.3 7:0.0 8:0.0 9:0.25 
0.0 0.0 1.0 1.0 1.0 1.0 0.0 1:0.0 2:0.36363637 3:0.0 4:0.0 5:0.0 6:0.45454547 7:0.045454547 8:0.09090909 9:0.045454547 
1.0 1.0 1.0 1.0 1.0 1.0 1.0 1:0.0 2:0.33333334 3:0.23809524 4:0.0 5:0.0 6:0.14285715 7:0.04761905 8:0.0952381 9:0.14285715 
1.0 0.0 0.0 0.0 1.0 0.0 0.0 1:0.0 2:0.4642857 3:0.21428572 4:0.071428575 5:0.0 6:0.10714286 7:0.0 8:0.14285715 9:0.0 
1.0 0.0 1.0 0.0 0.0 1.0 1.0 1:0.07692308 2:0.3846154 3:0.23076923 4:0.0 5:0.0 6:0.23076923 7:0.0 8:0.0 9:0.07692308 
1.0 1.0 1.0 1.0 1.0 1.0 1.0 1:0.032258064 2:0.29032257 3:0.19354838 4:0.06451613 5:0.0 6:0.3548387 7:0.06451613 8:0.0 9:0.0 
1.0 1.0 1.0 1.0 1.0 1.0 0.0 1:0.0 2:0.2972973 3:0.027027028 4:0.027027028 5:0.0 6:0.3783784 7:0.21621622 8:0.0 9:0.054054055 
0.0 0.0 1.0 1.0 0.0 1.0 0.0 1:0.033333335 2:0.43333334 3:0.033333335 4:0.0 5:0.0 6:0.23333333 7:0.13333334 8:0.0 9:0.13333334 
1.0 1.0 1.0 1.0 1.0 1.0 1.0 1:0.2244898 2:0.3265306 3:0.08163265 4:0.040816326 5:0.0 6:0.14285715 7:0.08163265 8:0.06122449 9:0.040816326 
0.0 0.0 0.0 0.0 0.0 1.0 0.0 1:0.0 2:0.625 3:0.0625 4:0.0 5:0.0 6:0.0 7:0.0 8:0.0 9:0.3125 
1.0 1.0 1.0 0.0 0.0 1.0 1.0 1:0.09615385 2:0.3653846 3:0.23076923 4:0.057692308 5:0.0 6:0.1923077 7:0.03846154 8:0.01923077 9:0.0 
0.0 0.0 0.0 0.0 0.0 1.0 1.0 1:0.15384616 2:0.5 3:0.07692308 4:0.0 5:0.0 6:0.03846154 7:0.115384616 8:0.0 9:0.115384616 
1.0 1.0 0.0 0.0 0.0 1.0 1.0 1:0.0 2:0.38709676 3:0.32258064 4:0.032258064 5:0.0 6:0.09677419 7:0.032258064 8:0.0 9:0.12903225 
0.0 0.0 1.0 0.0 0.0 0.0 0.0 1:0.0 2:0.5744681 3:0.021276595 4:0.021276595 5:0.0 6:0.3617021 7:0.0 8:0.0 9:0.021276595 
0.0 0.0 1.0 0.0 0.0 0.0 0.0 1:0.025 2:0.45 3:0.05 4:0.0 5:0.0 6:0.35 7:0.025 8:0.1 9:0.0 
0.0 0.0 1.0 1.0 1.0 1.0 0.0 1:0.022222223 2:0.37777779 3:0.06666667 4:0.0 5:0.0 6:0.2888889 7:0.044444446 8:0.06666667 9:0.13333334 
1.0 1.0 1.0 1.0 0.0 1.0 1.0 1:0.1923077 2:0.30769232 3:0.23076923 4:0.07692308 5:0.0 6:0.115384616 7:0.07692308 8:0.0 9:0.0 
1.0 1.0 1.0 1.0 1.0 1.0 1.0 1:0.0 2:0.21428572 3:0.0 4:0.14285715 5:0.0 6:0.2857143 7:0.21428572 8:0.071428575 9:0.071428575 
1.0 1.0 1.0 1.0 1.0 1.0 1.0 1:0.0 2:0.0 3:0.0 4:0.4 5:0.0 6:0.2 7:0.0 8:0.0 9:0.4 
0.0 0.0 1.0 0.0 0.0 0.0 0.0 1:0.0 2:0.5 3:0.0 4:0.0 5:0.0 6:0.39285713 7:0.10714286 8:0.0 9:0.0 
0.0 0.0 0.0 0.0 0.0 0.0 1.0 1:0.2 2:0.65 3:0.0 4:0.0 5:0.0 6:0.1 7:0.0 8:0.0 9:0.05 
-1.0 0.0 0.0 0.0 0.0 0.0 0.0 1:0.0 2:0.1764706 3:0.5294118 4:0.0 5:0.0 6:0.11764706 7:0.05882353 8:0.0 9:0.11764706 
-1.0 0.4718621654347823 1.0 1.0 0.0 1.0 1.0 1:0.2777778 2:0.055555556 3:0.33333334 4:0.0 5:0.0 6:0.22222222 7:0.055555556 8:0.0 9:0.055555556 
-1.0 1.0 1.0 1.0 1.0 1.0 1.0 1:0.0 2:0.15384616 3:0.23076923 4:0.0 5:0.0 6:0.07692308 7:0.07692308 8:0.3846154 9:0.07692308 
-1.0 0.0 0.0 0.0 0.0 1.0 0.0 1:0.0 2:0.2857143 3:0.44642857 4:0.017857144 5:0.0 6:0.08928572 7:0.10714286 8:0.0 9:0.05357143 
-1.0 0.0 0.0 0.0 0.0 0.0 0.0 1:0.071428575 2:0.35714287 3:0.5714286 4:0.0 5:0.0 6:0.0 7:0.0 8:0.0 9:0.0 
-0.0 0.0 0.0 1.0 0.0 0.0 1.0 1:0.10526316 2:0.05263158 3:0.47368422 4:0.0 5:0.0 6:0.05263158 7:0.2631579 8:0.0 9:0.05263158 
-0.0 0.0 0.0 1.0 0.0 1.0 1.0 1:0.14285715 2:0.0 3:0.42857143 4:0.0 5:0.0 6:0.0 7:0.35714287 8:0.0 9:0.071428575 
-1.0 1.0 1.0 1.0 1.0 1.0 1.0 1:0.0 2:0.11111111 3:0.0 4:0.0 5:0.0 6:0.5555556 7:0.11111111 8:0.0 9:0.22222222 
-1.0 1.0 1.0 1.0 1.0 1.0 1.0 1:0.0 2:0.09090909 3:0.27272728 4:0.09090909 5:0.0 6:0.18181819 7:0.09090909 8:0.09090909 9:0.18181819 
-1.0 0.0 1.0 1.0 1.0 1.0 1.0 1:0.0952381 2:0.0952381 3:0.3809524 4:0.0 5:0.0 6:0.0952381 7:0.2857143 8:0.0 9:0.04761905 
-1.0 0.0 0.0 0.0 0.0 1.0 1.0 1:0.10344828 2:0.27586207 3:0.37931034 4:0.03448276 5:0.0 6:0.06896552 7:0.03448276 8:0.03448276 9:0.06896552 
-1.0 0.0 0.0 0.0 1.0 0.0 0.4594540960765673 1:0.06451613 2:0.16129032 3:0.48387095 4:0.0 5:0.0 6:0.0 7:0.06451613 8:0.19354838 9:0.032258064 
-0.0 0.0 0.0 0.0 1.0 0.0 0.0 1:0.083333336 2:0.083333336 3:0.5 4:0.083333336 5:0.0 6:0.083333336 7:0.0 8:0.16666667 9:0.0 
-1.0 1.0 1.0 1.0 0.04065998366093088 1.0 1.0 1:0.0 2:0.6923077 3:0.15384616 4:0.0 5:0.0 6:0.0 7:0.0 8:0.0 9:0.15384616 
-0.0 0.0 0.0 0.0 0.0 1.0 1.0 1:0.18518518 2:0.11111111 3:0.44444445 4:0.0 5:0.0 6:0.0 7:0.0 8:0.0 9:0.25925925 
-0.0 1.0 0.0 1.0 0.0 1.0 0.0 1:0.0 2:0.055555556 3:0.44444445 4:0.11111111 5:0.0 6:0.055555556 7:0.22222222 8:0.0 9:0.11111111 
-1.0 1.0 1.0 1.0 1.0 1.0 1.0 1:0.15789473 2:0.15789473 3:0.2631579 4:0.0 5:0.0 6:0.0 7:0.2631579 8:0.0 9:0.15789473 
-0.0 1.0 0.0 0.0 0.0 0.0 1.0 1:0.4 2:0.0 3:0.4 4:0.2 5:0.0 6:0.0 7:0.0 8:0.0 9:0.0 
-1.0 1.0 1.0 0.0 0.0 1.0 0.0 1:0.0 2:0.1923077 3:0.3846154 4:0.15384616 5:0.0 6:0.23076923 7:0.03846154 8:0.0 9:0.0 
-1.0 1.0 1.0 1.0 1.0 1.0 1.0 1:0.0 2:0.041666668 3:0.16666667 4:0.0 5:0.0 6:0.375 7:0.27083334 8:0.020833334 9:0.125 
-1.0 1.0 1.0 1.0 0.0 1.0 1.0 1:0.0 2:0.2777778 3:0.33333334 4:0.0 5:0.0 6:0.11111111 7:0.055555556 8:0.0 9:0.22222222 
-1.0 0.0 0.7282751627349959 0.0 0.0 1.0 1.0 1:0.10344828 2:0.27586207 3:0.37931034 4:0.03448276 5:0.0 6:0.06896552 7:0.03448276 8:0.03448276 9:0.06896552 
-1.0 1.0 1.0 1.0 1.0 1.0 1.0 1:0.0 2:0.42857143 3:0.0 4:0.2857143 5:0.0 6:0.14285715 7:0.0 8:0.14285715 9:0.0 
-1.0 1.0 1.0 1.0 1.0 1.0 1.0 1:0.22222222 2:0.11111111 3:0.0 4:0.0 5:0.0 6:0.44444445 7:0.0 8:0.11111111 9:0.11111111 
-1.0 1.0 1.0 1.0 1.0 1.0 1.0 1:0.0 2:0.0 3:0.15384616 4:0.07692308 5:0.0 6:0.0 7:0.07692308 8:0.0 9:0.6923077 
-1.0 1.0 1.0 1.0 1.0 1.0 1.0 1:0.0 2:0.44444445 3:0.0 4:0.33333334 5:0.0 6:0.11111111 7:0.0 8:0.11111111 9:0.0 
-1.0 0.0 1.0 1.0 0.0 1.0 0.0 1:0.02173913 2:0.19565217 3:0.41304347 4:0.02173913 5:0.0 6:0.19565217 7:0.13043478 8:0.0 9:0.02173913 
-0.0 0.0 0.0 1.0 0.0 1.0 0.0 1:0.0 2:0.0 3:0.46875 4:0.0 5:0.0 6:0.0625 7:0.3125 8:0.0 9:0.15625 
-1.0 1.0 1.0 1.0 1.0 1.0 1.0 1:0.05263158 2:0.05263158 3:0.21052632 4:0.21052632 5:0.0 6:0.15789473 7:0.10526316 8:0.21052632 9:0.0 
-0.0 0.0 0.0 0.0 0.0 1.0 1.0 1:0.18518518 2:0.11111111 3:0.44444445 4:0.0 5:0.0 6:0.0 7:0.0 8:0.0 9:0.25925925 
-1.0 0.0 0.0 0.0 0.0 0.0 0.0 1:0.029411765 2:0.1764706 3:0.5 4:0.0 5:0.0 6:0.0882353 7:0.0882353 8:0.029411765 9:0.0882353 
-0.0 1.0 0.0 0.0 0.0 1.0 0.0 1:0.05263158 2:0.05263158 3:0.47368422 4:0.10526316 5:0.0 6:0.05263158 7:0.10526316 8:0.0 9:0.15789473 
-1.0 1.0 1.0 1.0 1.0 1.0 1.0 1:0.114285715 2:0.22857143 3:0.17142858 4:0.08571429 5:0.0 6:0.114285715 7:0.0 8:0.08571429 9:0.2 
-1.0 0.0 0.0 0.0 0.0 1.0 0.0 1:0.0 2:0.22727273 3:0.45454547 4:0.0 5:0.0 6:0.09090909 7:0.13636364 8:0.0 9:0.09090909 
-1.0 1.0 1.0 1.0 1.0 1.0 1.0 1:0.0 2:0.14285715 3:0.2857143 4:0.21428572 5:0.0 6:0.21428572 7:0.0 8:0.0 9:0.14285715 
-0.0 0.0 0.0 0.0 0.0 1.0 0.0 1:0.0 2:0.08695652 3:0.47826087 4:0.04347826 5:0.0 6:0.04347826 7:0.0 8:0.0 9:0.3478261 
-1.0 1.0 1.0 1.0 1.0 1.0 1.0 1:0.0 2:0.375 3:0.0 4:0.0 5:0.0 6:0.625 7:0.0 8:0.0 9:0.0 
-1.0 1.0 1.0 1.0 1.0 1.0 1.0 1:0.0 2:0.37931034 3:0.0 4:0.0 5:0.0 6:0.51724136 7:0.03448276 8:0.03448276 9:0.03448276 
-1.0 1.0 1.0 1.0 1.0 1.0 1.0 1:0.0 2:0.05882353 3:0.23529412 4:0.029411765 5:0.0 6:0.11764706 7:0.38235295 8:0.0 9:0.1764706 
-1.0 1.0 1.0 1.0 1.0 1.0 1.0 1:0.0 2:0.42857143 3:0.0 4:0.0 5:0.0 6:0.4857143 7:0.028571429 8:0.028571429 9:0.028571429 
-0.0 0.0 1.0 0.0 0.0 1.0 1.0 1:0.10714286 2:0.035714287 3:0.42857143 4:0.035714287 5:0.0 6:0.17857143 7:0.071428575 8:0.0 9:0.14285715 
-0.0 0.0 0.0 0.0 0.0 1.0 0.0 1:0.0 2:0.041666668 3:0.5416667 4:0.0 5:0.0 6:0.083333336 7:0.0 8:0.0 9:0.33333334 
-0.0 0.0 0.0 0.0 0.0 1.0 0.0 1:0.0 2:0.05 3:0.4 4:0.0 5:0.0 6:0.05 7:0.0 8:0.0 9:0.5 
-1.0 1.0 0.0 0.0 0.0 0.0 1.0 1:0.2857143 2:0.0952381 3:0.3809524 4:0.14285715 5:0.0 6:0.0 7:0.0 8:0.0952381 9:0.0 
-0.0 0.0 0.0 1.0 0.0 0.0 0.0 1:0.0 2:0.0 3:0.5 4:0.0 5:0.0 6:0.125 7:0.3125 8:0.0 9:0.0625 
-0.0 1.0 0.0 0.0 1.0 1.0 0.0 1:0.0 2:0.0 3:0.375 4:0.25 5:0.0 6:0.0 7:0.0 8:0.125 9:0.25 
-0.0 0.0 0.0 0.0 0.0 1.0 0.0 1:0.0 2:0.05 3:0.4 4:0.0 5:0.0 6:0.05 7:0.0 8:0.0 9:0.5 
-1.0 1.0 1.0 1.0 1.0 1.0 0.0 1:0.0 2:0.04347826 3:0.39130434 4:0.0 5:0.0 6:0.3043478 7:0.2173913 8:0.04347826 9:0.0 
-0.0 0.0 0.0 0.0 0.0 0.07133747418075993 0.0 1:0.0 2:0.07692308 3:0.5 4:0.0 5:0.0 6:0.115384616 7:0.15384616 8:0.03846154 9:0.115384616 
-1.0 1.0 1.0 1.0 1.0 1.0 1.0 1:0.3846154 2:0.0 3:0.23076923 4:0.07692308 5:0.0 6:0.0 7:0.0 8:0.15384616 9:0.15384616 
-1.0 1.0 1.0 1.0 1.0 1.0 1.0 1:0.0 2:0.46666667 3:0.0 4:0.0 5:0.0 6:0.53333336 7:0.0 8:0.0 9:0.0 
-1.0 1.0 1.0 1.0 1.0 1.0 1.0 1:0.0 2:0.0 3:0.0 4:0.0 5:0.0 6:0.0 7:0.0 8:0.0 9:0.0 
-1.0 1.0 1.0 1.0 1.0 1.0 1.0 1:0.0 2:0.5 3:0.25 4:0.0 5:0.0 6:0.0 7:0.25 8:0.0 9:0.0 
-0.0 1.0 0.0 0.0 0.0 1.0 0.0 1:0.0 2:0.08 3:0.52 4:0.16 5:0.0 6:0.0 7:0.0 8:0.0 9:0.24 
-0.0 0.0 0.0 0.0 0.0 1.0 0.0 1:0.04761905 2:0.04761905 3:0.52380955 4:0.0 5:0.0 6:0.04761905 7:0.04761905 8:0.0 9:0.2857143 
-1.0 0.0 1.0 1.0 1.0 1.0 1.0 1:0.0 2:0.0952381 3:0.33333334 4:0.0 5:0.0 6:0.0 7:0.3809524 8:0.0952381 9:0.0952381 
-0.0 0.0 0.0 0.0 0.0 1.0 0.0 1:0.0 2:0.083333336 3:0.5 4:0.0 5:0.0 6:0.0 7:0.0 8:0.0 9:0.41666666 
-0.0 0.09864087529356184 1.0 1.0 1.0 1.0 0.445539920405437 1:0.027027028 2:0.027027028 3:0.3783784 4:0.027027028 5:0.0 6:0.027027028 7:0.3243243 8:0.0 9:0.1891892 
-1.0 0.0 1.0 1.0 1.0 1.0 0.0 1:0.0 2:0.125 3:0.375 4:0.0 5:0.0 6:0.125 7:0.20833333 8:0.041666668 9:0.125 
-1.0 1.0 1.0 0.0 0.47324764556000315 1.0 1.0 1:0.17857143 2:0.10714286 3:0.32142857 4:0.071428575 5:0.0 6:0.14285715 7:0.0 8:0.035714287 9:0.14285715 
-1.0 1.0 1.0 1.0 1.0 1.0 1.0 1:0.033333335 2:0.06666667 3:0.26666668 4:0.1 5:0.0 6:0.0 7:0.1 8:0.0 9:0.43333334 
-1.0 0.0 0.0 0.0 0.0 1.0 0.0 1:0.0 2:0.2 3:0.4 4:0.0 5:0.0 6:0.0 7:0.06666667 8:0.0 9:0.33333334 
-0.0 1.0 0.0 0.0 0.0 0.0 0.0 1:0.0 2:0.0 3:0.5 4:0.5 5:0.0 6:0.0 7:0.0 8:0.0 9:0.0 
-0.0 0.0 0.0 1.0 0.0 1.0 0.0 1:0.0 2:0.0 3:0.44444445 4:0.0 5:0.0 6:0.0 7:0.33333334 8:0.0 9:0.22222222 
-0.0 0.0 1.0 1.0 1.0 1.0 1.0 1:0.055555556 2:0.0 3:0.3888889 4:0.0 5:0.0 6:0.11111111 7:0.22222222 8:0.055555556 9:0.16666667 
-1.0 1.0 1.0 1.0 0.0 1.0 1.0 1:0.05 2:0.2 3:0.35 4:0.05 5:0.0 6:0.05 7:0.1 8:0.0 9:0.2 
-0.0 0.0 0.0 0.0 0.0 1.0 1.0 1:0.13513513 2:0.08108108 3:0.45945945 4:0.027027028 5:0.0 6:0.027027028 7:0.027027028 8:0.0 9:0.24324325 
-1.0 0.0 0.0 0.0 0.0 1.0 0.0 1:0.0 2:0.16666667 3:0.5 4:0.0 5:0.0 6:0.0 7:0.083333336 8:0.083333336 9:0.16666667 
-1.0 1.0 1.0 1.0 1.0 1.0 1.0 1:0.0 2:0.23636363 3:0.27272728 4:0.036363635 5:0.0 6:0.36363637 7:0.07272727 8:0.0 9:0.018181818 
-1.0 1.0 1.0 1.0 1.0 1.0 1.0 1:0.0 2:0.045454547 3:0.3181818 4:0.0 5:0.0 6:0.09090909 7:0.18181819 8:0.045454547 9:0.3181818 
-1.0 1.0 1.0 0.011968329857861096 0.0 1.0 1.0 1:0.44444445 2:0.11111111 3:0.22222222 4:0.0 5:0.0 6:0.0 7:0.0 8:0.0 9:0.22222222 
-1.0 0.0 1.0 1.0 1.0 1.0 1.0 1:0.0 2:0.1 3:0.35 4:0.0 5:0.0 6:0.05 7:0.25 8:0.05 9:0.2 
-1.0 1.0 1.0 1.0 1.0 1.0 1.0 1:0.0 2:0.25925925 3:0.2962963 4:0.11111111 5:0.0 6:0.18518518 7:0.074074075 8:0.037037037 9:0.037037037 
-0.0 0.0 0.0 1.0 0.0 0.0 0.0 1:0.0 2:0.0 3:0.5 4:0.05 5:0.0 6:0.1 7:0.3 8:0.0 9:0.05 
-0.0 0.0 1.0 1.0 0.0 1.0 0.0 1:0.0 2:0.0 3:0.375 4:0.0 5:0.0 6:0.0 7:0.125 8:0.0 9:0.5 
-1.0 1.0 1.0 1.0 1.0 1.0 1.0 1:0.0 2:0.16666667 3:0.33333334 4:0.0 5:0.0 6:0.16666667 7:0.33333334 8:0.0 9:0.0 
-1.0 1.0 1.0 0.0 0.0 1.0 1.0 1:0.0 2:0.3043478 3:0.3043478 4:0.17391305 5:0.0 6:0.0 7:0.0 8:0.0 9:0.2173913 
-0.4419680435150992 1.0 1.0 1.0 0.0 1.0 0.0 1:0.0 2:0.06666667 3:0.43333334 4:0.033333335 5:0.0 6:0.2 7:0.13333334 8:0.0 9:0.13333334 
-1.0 1.0 1.0 1.0 1.0 1.0 1.0 1:0.14285715 2:0.071428575 3:0.2857143 4:0.071428575 5:0.0 6:0.14285715 7:0.071428575 8:0.071428575 9:0.14285715 
-0.0 1.0 1.0 0.0 0.0 1.0 0.0 1:0.0 2:0.0 3:0.33333334 4:0.33333334 5:0.0 6:0.0 7:0.0 8:0.0 9:0.33333334 
-0.0 1.0 0.0 0.0 0.0 0.0 0.0 1:0.0 2:0.0952381 3:0.52380955 4:0.14285715 5:0.0 6:0.0 7:0.0 8:0.0952381 9:0.14285715 
-1.0 0.0 1.0 0.0 1.0 1.0 0.0 1:0.0 2:0.07692308 3:0.43589744 4:0.025641026 5:0.0 6:0.17948718 7:0.102564104 8:0.051282052 9:0.12820514 
-0.0 0.0 0.0 0.1607325611952816 0.0 1.0 0.0 1:0.0 2:0.071428575 3:0.42857143 4:0.0 5:0.0 6:0.0 7:0.14285715 8:0.0 9:0.35714287 
-1.0 0.0 0.0 1.0 1.0 1.0 1.0 1:0.045454547 2:0.13636364 3:0.4090909 4:0.045454547 5:0.0 6:0.09090909 7:0.13636364 8:0.09090909 9:0.045454547 
-1.0 1.0 1.0 1.0 1.0 1.0 1.0 1:0.027777778 2:0.22222222 3:0.25 4:0.0 5:0.0 6:0.30555555 7:0.083333336 8:0.027777778 9:0.083333336 
-0.0 0.0 0.0 0.0 0.0 1.0 0.0 1:0.027777778 2:0.083333336 3:0.5 4:0.055555556 5:0.0 6:0.027777778 7:0.0 8:0.055555556 9:0.25 
-0.0 0.0 0.0 0.0 0.0 1.0 0.0 1:0.0 2:0.0 3:0.55 4:0.05 5:0.0 6:0.1 7:0.0 8:0.0 9:0.3 
-1.0 0.0 1.0 0.0 0.0 1.0 0.0 1:0.03125 2:0.125 3:0.4375 4:0.03125 5:0.0 6:0.1875 7:0.0625 8:0.0 9:0.125 
-1.0 1.0 1.0 0.0 0.0 1.0 1.0 1:0.21428572 2:0.2857143 3:0.2857143 4:0.0 5:0.0 6:0.21428572 7:0.0 8:0.0 9:0.0 
-0.0 1.0 0.0 0.0 0.0 0.0 0.0 1:0.0 2:0.0 3:0.54545456 4:0.18181819 5:0.0 6:0.09090909 7:0.0 8:0.0 9:0.18181819 
-1.0 1.0 1.0 1.0 1.0 1.0 1.0 1:0.33333334 2:0.14814815 3:0.22222222 4:0.074074075 5:0.0 6:0.037037037 7:0.074074075 8:0.037037037 9:0.074074075 
-1.0 1.0 1.0 0.0 0.0 1.0 1.0 1:0.125 2:0.0625 3:0.34375 4:0.0625 5:0.0 6:0.03125 7:0.0 8:0.03125 9:0.34375 
-1.0 1.0 1.0 1.0 1.0 1.0 1.0 1:0.0 2:0.2857143 3:0.2857143 4:0.0 5:0.0 6:0.14285715 7:0.14285715 8:0.0 9:0.14285715 
-1.0 1.0 1.0 1.0 1.0 1.0 1.0 1:0.0 2:0.25 3:0.071428575 4:0.0 5:0.0 6:0.4642857 7:0.10714286 8:0.035714287 9:0.071428575 
-1.0 0.0 0.0 0.0 0.0 1.0 1.0 1:0.3125 2:0.125 3:0.375 4:0.0625 5:0.0 6:0.0 7:0.0 8:0.0 9:0.125 
-1.0 1.0 0.6145082522367342 1.0 1.0 1.0 1.0 1:0.3846154 2:0.0 3:0.23076923 4:0.07692308 5:0.0 6:0.0 7:0.0 8:0.15384616 9:0.15384616 
-1.0 1.0 1.0 1.0 1.0 1.0 1.0 1:0.42857143 2:0.0 3:0.21428572 4:0.071428575 5:0.0 6:0.0 7:0.0 8:0.14285715 9:0.14285715 
-1.0 1.0 1.0 1.0 1.0 1.0 1.0 1:0.0 2:0.0 3:0.0 4:0.0 5:0.0 6:0.0 7:0.0 8:0.0 9:1.0 
-1.0 1.0 1.0 1.0 1.0 1.0 1.0 1:0.0 2:0.33333334 3:0.0 4:0.0 5:0.0 6:0.0 7:0.0 8:0.6666667 9:0.0 
-1.0 1.0 1.0 1.0 0.0 1.0 1.0 1:0.0 2:0.15384616 3:0.30769232 4:0.15384616 5:0.0 6:0.15384616 7:0.0 8:0.0 9:0.23076923 
-1.0 1.0 0.0 0.0 0.0 0.0 0.0 1:0.083333336 2:0.125 3:0.45833334 4:0.083333336 5:0.0 6:0.20833333 7:0.0 8:0.0 9:0.041666668 
-0.0 0.0 0.0 0.0 0.0 0.0 1.0 1:0.6666667 2:0.0 3:0.33333334 4:0.0 5:0.0 6:0.0 7:0.0 8:0.0 9:0.0 
-0.0 0.0 0.0 0.0 0.0 0.0 1.0 1:0.29166666 2:0.0 3:0.6666667 4:0.0 5:0.0 6:0.041666668 7:0.0 8:0.0 9:0.0 
-0.0 0.0 0.0 0.0 0.0 0.0 1.0 1:0.55 2:0.0 3:0.4 4:0.0 5:0.0 6:0.0 7:0.0 8:0.05 9:0.0 
-0.0 0.0 0.0 0.0 0.0 1.0 1.0 1:0.56 2:0.0 3:0.32 4:0.0 5:0.0 6:0.0 7:0.0 8:0.0 9:0.12 
-1.0 0.0 0.0 0.0 0.0 1.0 1.0 1:0.4827586 2:0.03448276 3:0.3448276 4:0.0 5:0.0 6:0.0 7:0.0 8:0.0 9:0.13793103 
-0.0 0.0 0.0 0.0 0.0 1.0 0.0 1:0.078947365 2:0.10526316 3:0.47368422 4:0.05263158 5:0.0 6:0.05263158 7:0.05263158 8:0.05263158 9:0.13157895 
-0.0 1.0 1.0 1.0 0.0 1.0 0.0 1:0.0 2:0.06666667 3:0.4 4:0.033333335 5:0.0 6:0.06666667 7:0.13333334 8:0.033333335 9:0.26666668 
-1.0 1.0 1.0 1.0 1.0 1.0 1.0 1:0.0 2:0.18181819 3:0.09090909 4:0.09090909 5:0.0 6:0.27272728 7:0.18181819 8:0.0 9:0.18181819 
-0.0 0.0 0.0 0.0 0.0 0.0 1.0 1:0.33333334 2:0.0 3:0.6666667 4:0.0 5:0.0 6:0.0 7:0.0 8:0.0 9:0.0 
-0.0 0.0 0.0 0.0 0.0 0.0 1.0 1:0.16 2:0.16 3:0.56 4:0.04 5:0.0 6:0.04 7:0.0 8:0.0 9:0.04 
-0.0 0.0 0.0 0.0 0.0 0.0 1.0 1:0.22222222 2:0.11111111 3:0.5555556 4:0.055555556 5:0.0 6:0.0 7:0.0 8:0.055555556 9:0.0 
-1.0 0.0 0.0 0.0 0.0 1.0 1.0 1:0.09090909 2:0.18181819 3:0.45454547 4:0.09090909 5:0.0 6:0.0 7:0.0 8:0.09090909 9:0.09090909 
-0.0 0.0 0.0 0.0 0.0 0.0 1.0 1:0.23333333 2:0.0 3:0.46666667 4:0.06666667 5:0.0 6:0.033333335 7:0.06666667 8:0.1 9:0.033333335 
-1.0 1.0 1.0 0.0 1.0 1.0 1.0 1:0.05882353 2:0.23529412 3:0.3529412 4:0.05882353 5:0.0 6:0.05882353 7:0.05882353 8:0.11764706 9:0.05882353 
-0.0 0.0 0.0 0.0 0.0 0.0 1.0 1:0.26666668 2:0.0 3:0.53333336 4:0.0 5:0.0 6:0.0 7:0.0 8:0.06666667 9:0.13333334 
-0.0 0.0 0.0 0.0 0.0 0.0 1.0 1:0.21428572 2:0.0 3:0.5714286 4:0.0 5:0.0 6:0.0 7:0.0 8:0.071428575 9:0.14285715 
-0.0 0.0 0.0 0.0 0.0 0.0 1.0 1:0.15151516 2:0.09090909 3:0.45454547 4:0.09090909 5:0.0 6:0.09090909 7:0.0 8:0.060606062 9:0.060606062 
-0.0 0.0 0.0 0.0 0.0 0.0 1.0 1:0.23529412 2:0.05882353 3:0.47058824 4:0.0882353 5:0.0 6:0.029411765 7:0.0 8:0.05882353 9:0.05882353 
-0.0 1.0 0.0 0.0 0.0 1.0 1.0 1:0.15625 2:0.0625 3:0.4375 4:0.09375 5:0.0 6:0.09375 7:0.03125 8:0.03125 9:0.09375 
-0.0 0.0 0.0 1.0 0.0 0.0 0.0 1:0.0 2:0.09090909 3:0.4848485 4:0.0 5:0.0 6:0.121212125 7:0.21212122 8:0.060606062 9:0.030303031 
-0.0 0.0 0.0 0.0 0.0 1.0 1.0 1:0.34615386 2:0.03846154 3:0.3846154 4:0.03846154 5:0.0 6:0.07692308 7:0.0 8:0.0 9:0.115384616 
-0.0 0.0 0.0 1.0 1.0 1.0 0.0 1:0.035714287 2:0.0 3:0.39285713 4:0.0 5:0.0 6:0.035714287 7:0.2857143 8:0.071428575 9:0.17857143 
-0.0 0.0 1.0 1.0 1.0 1.0 0.0 1:0.0 2:0.037037037 3:0.37037036 4:0.0 5:0.0 6:0.0 7:0.2962963 8:0.0 9:0.2962963 
-1.0 1.0 1.0 1.0 1.0 1.0 1.0 1:0.11764706 2:0.1764706 3:0.11764706 4:0.05882353 5:0.0 6:0.05882353 7:0.05882353 8:0.1764706 9:0.23529412 
-0.0 0.0 0.0 1.0 0.0 1.0 0.0 1:0.0 2:0.11764706 3:0.47058824 4:0.0 5:0.0 6:0.0 7:0.23529412 8:0.0 9:0.1764706 
-1.0 1.0 1.0 1.0 0.0 1.0 0.0 1:0.0 2:0.09090909 3:0.36363637 4:0.0 5:0.0 6:0.09090909 7:0.09090909 8:0.0 9:0.36363637 
-0.0 0.0 0.0 0.0 0.0 1.0 0.0 1:0.0625 2:0.125 3:0.5 4:0.0 5:0.0 6:0.0625 7:0.0 8:0.0625 9:0.1875 
-0.0 0.0 0.0 0.0 0.0 1.0 0.0 1:0.04 2:0.0 3:0.52 4:0.04 5:0.0 6:0.16 7:0.0 8:0.0 9:0.24 
-0.0 1.0 1.0 0.0 1.0 1.0 0.0 1:0.0 2:0.0 3:0.3846154 4:0.15384616 5:0.0 6:0.15384616 7:0.0 8:0.07692308 9:0.23076923 
-0.0 0.0 0.0 0.0 0.26249107731223575 1.0 1.0 1:0.41666666 2:0.0 3:0.33333334 4:0.0 5:0.0 6:0.0 7:0.0 8:0.083333336 9:0.16666667 
-1.0 1.0 1.0 1.0 1.0 1.0 1.0 1:0.0 2:0.0 3:0.25 4:0.0 5:0.0 6:0.25 7:0.0 8:0.0 9:0.5 
-1.0 1.0 1.0 1.0 1.0 1.0 1.0 1:0.0 2:0.42857143 3:0.0 4:0.0 5:0.0 6:0.0 7:0.0 8:0.0 9:0.5714286 
-1.0 0.0 0.0 0.0 1.0 1.0 1.0 1:0.33333334 2:0.0 3:0.33333334 4:0.0 5:0.0 6:0.0 7:0.0 8:0.33333334 9:0.0 
-1.0 1.0 1.0 1.0 1.0 1.0 1.0 1:0.0 2:0.1 3:0.2 4:0.2 5:0.0 6:0.2 7:0.0 8:0.0 9:0.3 
-0.0 1.0 0.0 0.0 0.0 0.0 0.0 1:0.0 2:0.055555556 3:0.6111111 4:0.22222222 5:0.0 6:0.0 7:0.0 8:0.0 9:0.11111111 
-0.0 0.0 0.0 1.0 0.0 0.0 0.0 1:0.05263158 2:0.10526316 3:0.47368422 4:0.0 5:0.0 6:0.05263158 7:0.2631579 8:0.0 9:0.05263158 
-1.0 1.0 1.0 1.0 0.0 1.0 1.0 1:0.0 2:0.04347826 3:0.3043478 4:0.08695652 5:0.0 6:0.0 7:0.0 8:0.0 9:0.5652174 
-0.0 0.0 0.0 0.0 0.0 1.0 0.0 1:0.05263158 2:0.0 3:0.47368422 4:0.0 5:0.0 6:0.10526316 7:0.10526316 8:0.0 9:0.2631579 
-1.0 0.0 0.0 0.0 0.0 1.0 0.0 1:0.0 2:0.13333334 3:0.46666667 4:0.0 5:0.0 6:0.06666667 7:0.13333334 8:0.0 9:0.2 
-1.0 1.0 1.0 1.0 1.0 1.0 1.0 1:0.0 2:0.0 3:0.0 4:0.0 5:0.0 6:0.0 7:0.0 8:0.0 9:1.0 
-0.0 0.0 0.0 0.0 0.0 1.0 1.0 1:0.11111111 2:0.074074075 3:0.4814815 4:0.037037037 5:0.0 6:0.0 7:0.0 8:0.037037037 9:0.25925925 
-1.0 1.0 1.0 1.0 1.0 1.0 1.0 1:0.61904764 2:0.04761905 3:0.14285715 4:0.04761905 5:0.0 6:0.04761905 7:0.04761905 8:0.0 9:0.04761905 
-0.0 0.0 0.0 0.0 0.0 0.0 1.0 1:0.13513513 2:0.13513513 3:0.4864865 4:0.054054055 5:0.0 6:0.027027028 7:0.0 8:0.027027028 9:0.13513513 
-1.0 1.0 0.0 0.0 0.0 1.0 1.0 1:0.0882353 2:0.1764706 3:0.4117647 4:0.0882353 5:0.0 6:0.029411765 7:0.0 8:0.05882353 9:0.14705883 
-1.0 0.0 0.0 0.0 1.0 1.0 0.0 1:0.0 2:0.1875 3:0.4375 4:0.0625 5:0.0 6:0.0625 7:0.0 8:0.125 9:0.125 
-1.0 1.0 1.0 0.0 0.0 1.0 0.0 1:0.0 2:0.07692308 3:0.42307693 4:0.115384616 5:0.0 6:0.15384616 7:0.115384616 8:0.0 9:0.115384616 
-0.0 1.0 1.0 1.0 1.0 1.0 0.0 1:0.0 2:0.0 3:0.33333334 4:0.0 5:0.0 6:0.11111111 7:0.11111111 8:0.0 9:0.44444445 
-1.0 1.0 1.0 1.0 1.0 1.0 1.0 1:0.0 2:0.08510638 3:0.21276596 4:0.0 5:0.0 6:0.23404256 7:0.23404256 8:0.08510638 9:0.14893617 
-1.0 0.0 1.0 1.0 0.0 1.0 1.0 1:0.05263158 2:0.10526316 3:0.42105263 4:0.0 5:0.0 6:0.10526316 7:0.2631579 8:0.0 9:0.05263158 
-1.0 1.0 1.0 1.0 1.0 1.0 1.0 1:0.05263158 2:0.05263158 3:0.21052632 4:0.21052632 5:0.0 6:0.15789473 7:0.10526316 8:0.21052632 9:0.0 
-1.0 1.0 1.0 1.0 1.0 1.0 0.0 1:0.0 2:0.03448276 3:0.3448276 4:0.03448276 5:0.0 6:0.13793103 7:0.41379312 8:0.0 9:0.03448276 
-1.0 -1.0 0.0 0.0 0.0 1.0 0.0 1:0.0 2:0.16666667 3:0.083333336 4:0.41666666 5:0.0 6:0.0 7:0.0 8:0.0 9:0.33333334 
-1.0 -1.0 1.0 1.0 0.0 1.0 0.0 1:0.0 2:0.125 3:0.125 4:0.375 5:0.0 6:0.1875 7:0.0625 8:0.0 9:0.125 
-0.0 -0.0 0.0 0.0 0.0 1.0 0.0 1:0.0 2:0.11111111 3:0.055555556 4:0.44444445 5:0.0 6:0.055555556 7:0.055555556 8:0.0 9:0.2777778 
-1.0 -1.0 1.0 1.0 1.0 1.0 1.0 1:0.0 2:0.26086956 3:0.08695652 4:0.26086956 5:0.0 6:0.13043478 7:0.08695652 8:0.0 9:0.17391305 
-1.0 -1.0 1.0 1.0 1.0 1.0 1.0 1:0.0 2:0.18181819 3:0.18181819 4:0.27272728 5:0.0 6:0.18181819 7:0.0 8:0.09090909 9:0.09090909 
-1.0 -0.0 1.0 0.0 0.0 1.0 0.0 1:0.0 2:0.1904762 3:0.0 4:0.3809524 5:0.0 6:0.1904762 7:0.0 8:0.0 9:0.23809524 
-1.0 -1.0 1.0 1.0 1.0 1.0 1.0 1:0.0 2:0.16666667 3:0.0 4:0.16666667 5:0.0 6:0.16666667 7:0.0 8:0.0 9:0.5 
-0.0 -0.0 0.0 0.0 0.0 1.0 0.0 1:0.0 2:0.0 3:0.0 4:0.45454547 5:0.0 6:0.0 7:0.0 8:0.09090909 9:0.45454547 
-1.0 -1.0 0.0 0.0 0.0 1.0 0.0 1:0.0 2:0.25 3:0.16666667 4:0.41666666 5:0.0 6:0.083333336 7:0.0 8:0.0 9:0.083333336 
-1.0 -1.0 1.0 1.0 1.0 1.0 1.0 1:0.0 2:0.05 3:0.15 4:0.25 5:0.0 6:0.25 7:0.1 8:0.05 9:0.15 
-1.0 -1.0 1.0 1.0 1.0 1.0 1.0 1:0.0 2:0.24 3:0.04 4:0.28 5:0.0 6:0.32 7:0.08 8:0.0 9:0.04 
-1.0 -1.0 1.0 1.0 1.0 1.0 1.0 1:0.11111111 2:0.44444445 3:0.11111111 4:0.22222222 5:0.0 6:0.0 7:0.0 8:0.11111111 9:0.0 
-1.0 -1.0 1.0 1.0 1.0 1.0 1.0 1:0.0 2:0.0 3:0.055555556 4:0.11111111 5:0.0 6:0.22222222 7:0.0 8:0.0 9:0.6111111 
-1.0 -0.0 1.0 0.0 0.0 0.0 0.0 1:0.0 2:0.2 3:0.0 4:0.4 5:0.0 6:0.4 7:0.0 8:0.0 9:0.0 
-1.0 -1.0 1.0 1.0 1.0 1.0 1.0 1:0.0 2:0.2 3:0.26666668 4:0.13333334 5:0.0 6:0.2 7:0.13333334 8:0.0 9:0.06666667 
-0.0 -0.0 0.0 1.0 0.0 1.0 0.0 1:0.0 2:0.037037037 3:0.074074075 4:0.44444445 5:0.0 6:0.074074075 7:0.14814815 8:0.0 9:0.22222222 
-1.0 -1.0 1.0 1.0 1.0 1.0 1.0 1:0.06896552 2:0.20689656 3:0.10344828 4:0.2413793 5:0.0 6:0.27586207 7:0.03448276 8:0.03448276 9:0.03448276 
-1.0 -1.0 1.0 1.0 1.0 1.0 1.0 1:0.0 2:0.16666667 3:0.0 4:0.16666667 5:0.0 6:0.16666667 7:0.0 8:0.0 9:0.5 
-1.0 -1.0 1.0 1.0 1.0 1.0 1.0 1:0.3 2:0.1 3:0.0 4:0.0 5:0.0 6:0.0 7:0.1 8:0.0 9:0.5 
-1.0 -1.0 1.0 1.0 1.0 1.0 1.0 1:0.36363637 2:0.09090909 3:0.0 4:0.3030303 5:0.0 6:0.060606062 7:0.060606062 8:0.030303031 9:0.09090909 
-1.0 -1.0 1.0 1.0 1.0 1.0 1.0 1:0.0 2:0.102564104 3:0.07692308 4:0.33333334 5:0.0 6:0.07692308 7:0.102564104 8:0.051282052 9:0.25641027 
-1.0 -1.0 1.0 1.0 0.0 1.0 0.0 1:0.0 2:0.33333334 3:0.0 4:0.33333334 5:0.0 6:0.33333334 7:0.0 8:0.0 9:0.0 
-1.0 -0.0 1.0 0.0 1.0 1.0 1.0 1:0.125 2:0.0625 3:0.0 4:0.375 5:0.0 6:0.25 7:0.0 8:0.0625 9:0.125 
-0.0 -1.0 0.0 0.0 0.0 1.0 0.0 1:0.0 2:0.125 3:0.1875 4:0.4375 5:0.0 6:0.0 7:0.0 8:0.0625 9:0.1875 
-1.0 -1.0 1.0 1.0 1.0 1.0 1.0 1:0.0 2:0.0 3:0.035714287 4:0.21428572 5:0.0 6:0.39285713 7:0.2857143 8:0.035714287 9:0.035714287 
-0.0 -1.0 0.0 0.0 0.0 0.430591470543433 1.0 1:0.035714287 2:0.10714286 3:0.2857143 4:0.42857143 5:0.0 6:0.035714287 7:0.0 8:0.071428575 9:0.035714287 
-1.0 -1.0 1.0 1.0 1.0 1.0 1.0 1:0.045454547 2:0.045454547 3:0.27272728 4:0.22727273 5:0.0 6:0.13636364 7:0.09090909 8:0.13636364 9:0.045454547 
-1.0 -1.0 1.0 1.0 1.0 1.0 1.0 1:0.0 2:0.037037037 3:0.037037037 4:0.11111111 5:0.0 6:0.33333334 7:0.44444445 8:0.0 9:0.037037037 
-1.0 -1.0 1.0 1.0 1.0 1.0 1.0 1:0.07692308 2:0.07692308 3:0.07692308 4:0.30769232 5:0.0 6:0.07692308 7:0.15384616 8:0.07692308 9:0.15384616 
-1.0 -1.0 1.0 1.0 1.0 1.0 1.0 1:0.0 2:0.11111111 3:0.0 4:0.11111111 5:0.0 6:0.22222222 7:0.33333334 8:0.0 9:0.22222222 
-1.0 -1.0 1.0 1.0 1.0 1.0 1.0 1:0.0 2:0.1764706 3:0.0 4:0.1764706 5:0.0 6:0.29411766 7:0.11764706 8:0.11764706 9:0.11764706 
-0.0 -1.0 0.0 1.0 0.0 1.0 0.0 1:0.028571429 2:0.08571429 3:0.114285715 4:0.42857143 5:0.0 6:0.057142857 7:0.14285715 8:0.0 9:0.14285715 
-1.0 -0.0 1.0 0.0 0.0 0.0 0.0 1:0.0 2:0.15789473 3:0.05263158 4:0.42105263 5:0.0 6:0.31578946 7:0.05263158 8:0.0 9:0.0 
-1.0 -1.0 1.0 1.0 1.0 1.0 1.0 1:0.0 2:0.0 3:0.125 4:0.0625 5:0.0 6:0.4375 7:0.0 8:0.0625 9:0.3125 
-1.0 -1.0 1.0 1.0 1.0 1.0 1.0 1:0.2 2:0.2 3:0.0 4:0.0 5:0.0 6:0.2 7:0.2 8:0.0 9:0.2 
-1.0 -0.19063199301811132 1.0 1.0 0.0 1.0 1.0 1:0.071428575 2:0.14285715 3:0.0 4:0.35714287 5:0.0 6:0.21428572 7:0.071428575 8:0.0 9:0.14285715 
-1.0 -1.0 1.0 1.0 1.0 1.0 1.0 1:0.0 2:0.1904762 3:0.0 4:0.0952381 5:0.0 6:0.52380955 7:0.0952381 8:0.04761905 9:0.04761905 
-1.0 -1.0 1.0 1.0 0.0 1.0 1.0 1:0.0 2:0.21428572 3:0.14285715 4:0.2857143 5:0.0 6:0.0 7:0.0 8:0.0 9:0.35714287 
-1.0 -1.0 1.0 0.0 0.0 1.0 1.0 1:0.0 2:0.0625 3:0.3125 4:0.34375 5:0.0 6:0.125 7:0.03125 8:0.0 9:0.125 
-1.0 -1.0 1.0 1.0 1.0 1.0 1.0 1:0.033333335 2:0.06666667 3:0.46666667 4:0.2 5:0.0 6:0.06666667 7:0.0 8:0.0 9:0.16666667 
-0.0 -1.0 0.0 0.0 0.0 1.0 0.0 1:0.04 2:0.04 3:0.16 4:0.44 5:0.0 6:0.04 7:0.08 8:0.0 9:0.2 
-1.0 -1.0 1.0 1.0 1.0 1.0 1.0 1:0.083333336 2:0.0 3:0.16666667 4:0.16666667 5:0.0 6:0.16666667 7:0.083333336 8:0.0 9:0.33333334 
-1.0 -1.0 1.0 1.0 1.0 1.0 1.0 1:0.1 2:0.06666667 3:0.23333333 4:0.3 5:0.0 6:0.1 7:0.0 8:0.06666667 9:0.13333334 
-0.0 -1.0 0.0 0.0 1.0 1.0 0.0 1:0.0 2:0.041666668 3:0.29166666 4:0.41666666 5:0.0 6:0.041666668 7:0.0 8:0.125 9:0.083333336 
-1.0 -1.0 1.0 1.0 1.0 1.0 1.0 1:0.07692308 2:0.15384616 3:0.0 4:0.115384616 5:0.0 6:0.5 7:0.03846154 8:0.0 9:0.115384616 
-1.0 -1.0 1.0 1.0 1.0 1.0 1.0 1:0.0 2:0.23529412 3:0.0 4:0.05882353 5:0.0 6:0.5882353 7:0.11764706 8:0.0 9:0.0 
-1.0 -1.0 1.0 1.0 1.0 1.0 1.0 1:0.0 2:0.0 3:0.0 4:0.25 5:0.0 6:0.25 7:0.25 8:0.0 9:0.25 
-1.0 -1.0 1.0 0.0 0.0 1.0 1.0 1:0.05 2:0.2 3:0.2 4:0.35 5:0.0 6:0.0 7:0.0 8:0.05 9:0.15 
-1.0 -1.0 1.0 1.0 1.0 1.0 1.0 1:0.05882353 2:0.05882353 3:0.05882353 4:0.29411766 5:0.0 6:0.1764706 7:0.1764706 8:0.0 9:0.1764706 
-1.0 -1.0 1.0 1.0 0.0 1.0 1.0 1:0.0 2:0.027777778 3:0.1388889 4:0.30555555 5:0.0 6:0.083333336 7:0.055555556 8:0.0 9:0.3888889 
-1.0 -1.0 1.0 1.0 1.0 1.0 1.0 1:0.0 2:0.25 3:0.125 4:0.25 5:0.0 6:0.1875 7:0.0 8:0.0625 9:0.125 
-1.0 -1.0 1.0 1.0 1.0 1.0 1.0 1:0.0 2:0.0 3:0.0 4:0.125 5:0.0 6:0.375 7:0.25 8:0.0 9:0.25 
-0.0 -1.0 0.0 0.0 0.0 1.0 0.0 1:0.0 2:0.10526316 3:0.10526316 4:0.42105263 5:0.0 6:0.05263158 7:0.0 8:0.0 9:0.31578946 
-1.0 -1.0 1.0 1.0 1.0 1.0 1.0 1:0.033333335 2:0.26666668 3:0.0 4:0.06666667 5:0.0 6:0.46666667 7:0.1 8:0.0 9:0.06666667 
-1.0 -1.0 1.0 1.0 1.0 1.0 1.0 1:0.0 2:0.22222222 3:0.055555556 4:0.11111111 5:0.0 6:0.6111111 7:0.0 8:0.0 9:0.0 
-1.0 -1.0 1.0 1.0 1.0 1.0 1.0 1:0.0 2:0.0 3:0.0 4:0.0 5:0.0 6:0.0 7:0.0 8:0.0 9:1.0 
-0.0 -1.0 0.0 0.0 0.0 1.0 1.0 1:0.05882353 2:0.05882353 3:0.3529412 4:0.4117647 5:0.0 6:0.05882353 7:0.0 8:0.0 9:0.05882353 
-0.0 -0.002649397017074255 0.0 0.0 0.0 0.0 0.0 1:0.0 2:0.14814815 3:0.14814815 4:0.4814815 5:0.0 6:0.037037037 7:0.0 8:0.0 9:0.18518518 
-1.0 -0.0 1.0 0.0 1.0 1.0 1.0 1:0.125 2:0.0625 3:0.0 4:0.375 5:0.0 6:0.25 7:0.0 8:0.0625 9:0.125 
-1.0 -1.0 1.0 1.0 1.0 1.0 1.0 1:0.03846154 2:0.15384616 3:0.0 4:0.15384616 5:0.0 6:0.34615386 7:0.03846154 8:0.0 9:0.26923078 
-1.0 -1.0 1.0 1.0 0.0 1.0 0.0 1:0.0 2:0.071428575 3:0.071428575 4:0.35714287 5:0.0 6:0.14285715 7:0.071428575 8:0.0 9:0.2857143 
-0.0 -1.0 0.0 0.0 0.0 0.0 0.0 1:0.05882353 2:0.0 3:0.23529412 4:0.5294118 5:0.0 6:0.11764706 7:0.0 8:0.0 9:0.05882353 
-1.0 -1.0 1.0 1.0 1.0 1.0 1.0 1:0.035714287 2:0.25 3:0.035714287 4:0.21428572 5:0.0 6:0.21428572 7:0.035714287 8:0.071428575 9:0.14285715 
-0.0 -0.0 0.0 0.0 0.0 0.45517809538797566 0.0 1:0.04761905 2:0.04761905 3:0.0 4:0.47619048 5:0.0 6:0.04761905 7:0.04761905 8:0.0 9:0.33333334 
-1.0 -1.0 1.0 0.0 0.0 1.0 1.0 1:0.09090909 2:0.18181819 3:0.27272728 4:0.36363637 5:0.0 6:0.09090909 7:0.0 8:0.0 9:0.0 
-1.0 -1.0 1.0 1.0 1.0 1.0 0.859829298099438 1:0.0 2:0.06666667 3:0.13333334 4:0.3 5:0.0 6:0.23333333 7:0.2 8:0.0 9:0.06666667 
-1.0 -1.0 1.0 0.7550522706421562 0.0 1.0 1.0 1:0.13333334 2:0.13333334 3:0.06666667 4:0.33333334 5:0.0 6:0.06666667 7:0.0 8:0.0 9:0.26666668 
-1.0 -1.0 0.0 0.0 0.0 1.0 0.0 1:0.0 2:0.25 3:0.16666667 4:0.41666666 5:0.0 6:0.083333336 7:0.0 8:0.0 9:0.083333336 
-0.0 -0.37722165069315855 0.0 0.0 0.0 0.0 0.0 1:0.0 2:0.1 3:0.3 4:0.6 5:0.0 6:0.0 7:0.0 8:0.0 9:0.0 
-1.0 -1.0 1.0 1.0 0.0 1.0 0.0 1:0.0 2:0.11764706 3:0.05882353 4:0.29411766 5:0.0 6:0.29411766 7:0.0 8:0.0 9:0.23529412 
-0.0 -0.0 0.0 1.0 0.0 0.0 0.0 1:0.055555556 2:0.055555556 3:0.055555556 4:0.5 5:0.0 6:0.0 7:0.22222222 8:0.055555556 9:0.055555556 
-0.0 -0.0 0.0 0.0 0.0 0.0 1.0 1:0.13636364 2:0.09090909 3:0.045454547 4:0.45454547 5:0.0 6:0.045454547 7:0.045454547 8:0.0 9:0.18181819 
-1.0 -0.0 1.0 1.0 1.0 1.0 0.0 1:0.037037037 2:0.11111111 3:0.0 4:0.37037036 5:0.0 6:0.25925925 7:0.074074075 8:0.074074075 9:0.074074075 
-1.0 -0.0 1.0 0.0 1.0 1.0 1.0 1:0.125 2:0.0625 3:0.0 4:0.375 5:0.0 6:0.25 7:0.0 8:0.0625 9:0.125 
-0.0 -0.0 0.0 0.0 0.0 0.6815315755492171 0.0 1:0.04761905 2:0.04761905 3:0.0 4:0.47619048 5:0.0 6:0.04761905 7:0.04761905 8:0.0 9:0.33333334 
-1.0 -0.0 1.0 0.0 0.0 1.0 0.0 1:0.019607844 2:0.11764706 3:0.039215688 4:0.4117647 5:0.0 6:0.21568628 7:0.05882353 8:0.0 9:0.13725491 
-1.0 -1.0 1.0 1.0 1.0 1.0 1.0 1:0.0 2:0.0 3:0.125 4:0.0625 5:0.0 6:0.4375 7:0.0 8:0.0625 9:0.3125 
-0.0 -0.0 1.0 0.0 0.0 0.0 0.0 1:0.020408163 2:0.12244898 3:0.040816326 4:0.42857143 5:0.0 6:0.2244898 7:0.06122449 8:0.0 9:0.10204082 
-0.0 -0.0 0.0 0.0 0.0 1.0 0.0 1:0.0 2:0.033333335 3:0.06666667 4:0.46666667 5:0.0 6:0.0 7:0.06666667 8:0.0 9:0.36666667 
-1.0 -1.0 1.0 1.0 1.0 1.0 1.0 1:0.0 2:0.2857143 3:0.071428575 4:0.14285715 5:0.0 6:0.42857143 7:0.0 8:0.0 9:0.071428575 
-0.0 -0.0 1.0 0.0 0.0 0.0 0.0 1:0.0 2:0.04761905 3:0.0 4:0.47619048 5:0.0 6:0.2857143 7:0.0 8:0.0952381 9:0.0952381 
-0.0 -0.0 1.0 0.0 0.0 1.0 0.0 1:0.0 2:0.0 3:0.0 4:0.4375 5:0.0 6:0.0625 7:0.0625 8:0.0625 9:0.375 
-0.0 -0.0 0.0 0.0 1.0 0.0 0.0 1:0.0 2:0.0 3:0.055555556 4:0.5 5:0.0 6:0.16666667 7:0.11111111 8:0.11111111 9:0.055555556 
-1.0 -1.0 1.0 0.0 0.9705937138818767 1.0 1.0 1:0.055555556 2:0.16666667 3:0.2777778 4:0.33333334 5:0.0 6:0.11111111 7:0.0 8:0.055555556 9:0.0 
-1.0 -0.0 0.0 0.0 0.0 1.0 1.0 1:0.14285715 2:0.14285715 3:0.0 4:0.42857143 5:0.0 6:0.0 7:0.0 8:0.0 9:0.2857143 
-1.0 -0.0 1.0 1.0 0.0 1.0 0.0 1:0.0 2:0.14285715 3:0.0 4:0.42857143 5:0.0 6:0.14285715 7:0.14285715 8:0.0 9:0.14285715 
-0.0 -0.0 1.0 1.0 0.0 0.0 0.0 1:0.020408163 2:0.020408163 3:0.08163265 4:0.4489796 5:0.0 6:0.2244898 7:0.18367347 8:0.0 9:0.020408163 
-1.0 -1.0 1.0 1.0 1.0 1.0 1.0 1:0.14285715 2:0.071428575 3:0.0 4:0.2857143 5:0.0 6:0.21428572 7:0.14285715 8:0.0 9:0.14285715 
-0.0 -0.0 0.0 0.0 0.0 1.0 0.0 1:0.025641026 2:0.102564104 3:0.07692308 4:0.46153846 5:0.0 6:0.0 7:0.07692308 8:0.0 9:0.25641027 
-0.0 -0.0 1.0 1.0 0.0 1.0 0.0 1:0.0 2:0.05 3:0.05 4:0.4 5:0.0 6:0.15 7:0.05 8:0.05 9:0.25 
-1.0 -1.0 1.0 1.0 1.0 1.0 1.0 1:0.0 2:0.13333334 3:0.2 4:0.26666668 5:0.0 6:0.06666667 7:0.0 8:0.2 9:0.13333334 
-0.0 -0.0 1.0 0.0 0.0 0.0 0.0 1:0.0 2:0.15384616 3:0.0 4:0.46153846 5:0.0 6:0.15384616 7:0.07692308 8:0.07692308 9:0.07692308 
-1.0 -1.0 1.0 1.0 1.0 1.0 1.0 1:0.060606062 2:0.15151516 3:0.15151516 4:0.3030303 5:0.0 6:0.15151516 7:0.060606062 8:0.0 9:0.121212125 
-1.0 -1.0 1.0 1.0 1.0 1.0 1.0 1:0.0 2:0.2 3:0.4 4:0.1 5:0.0 6:0.0 7:0.0 8:0.0 9:0.3 
-0.0 -1.0 0.0 0.0 0.0 0.0 0.0 1:0.0 2:0.11764706 3:0.1764706 4:0.47058824 5:0.0 6:0.11764706 7:0.05882353 8:0.05882353 9:0.0 
-1.0 -1.0 1.0 1.0 1.0 1.0 0.0 1:0.0 2:0.114285715 3:0.2 4:0.4 5:0.0 6:0.08571429 7:0.114285715 8:0.057142857 9:0.028571429 
-0.0 -0.0 0.0 0.0 0.0 0.0 1.0 1:0.20833333 2:0.041666668 3:0.0 4:0.5416667 5:0.0 6:0.083333336 7:0.041666668 8:0.0 9:0.083333336 
-0.0 -1.0 1.0 1.0 0.0 1.0 0.0 1:0.0 2:0.0 3:0.125 4:0.375 5:0.0 6:0.0 7:0.125 8:0.0 9:0.375 
-0.0 -0.0 1.0 0.0 0.0 1.0 0.0 1:0.03448276 2:0.06896552 3:0.0 4:0.41379312 5:0.0 6:0.0 7:0.03448276 8:0.03448276 9:0.41379312 
-1.0 -1.0 0.1774257591747205 1.0 1.0 1.0 0.7357963308860973 1:0.02 2:0.06 3:0.04 4:0.4 5:0.0 6:0.08 7:0.0 8:0.36 9:0.04 
-1.0 -0.0 1.0 1.0 1.0 1.0 0.0 1:0.037037037 2:0.11111111 3:0.0 4:0.37037036 5:0.0 6:0.25925925 7:0.074074075 8:0.074074075 9:0.074074075 
-0.0 -1.0 0.0 0.0 0.0 1.0 0.0 1:0.0 2:0.03846154 3:0.34615386 4:0.42307693 5:0.0 6:0.07692308 7:0.03846154 8:0.0 9:0.07692308 
-1.0 -1.0 1.0 1.0 1.0 1.0 1.0 1:0.06382979 2:0.14893617 3:0.06382979 4:0.40425533 5:0.0 6:0.12765957 7:0.14893617 8:0.04255319 9:0.0 
-0.0 -1.0 0.0 0.0 0.0 1.0 0.0 1:0.03448276 2:0.06896552 3:0.13793103 4:0.44827586 5:0.0 6:0.03448276 7:0.0 8:0.0 9:0.27586207 
-1.0 -0.0 1.0 1.0 1.0 1.0 0.0 1:0.037037037 2:0.11111111 3:0.0 4:0.37037036 5:0.0 6:0.25925925 7:0.074074075 8:0.074074075 9:0.074074075 
-0.0 -0.0 1.0 1.0 0.0 1.0 0.0 1:0.0 2:0.041666668 3:0.083333336 4:0.41666666 5:0.0 6:0.25 7:0.125 8:0.0 9:0.083333336 
-0.0 -0.0 1.0 0.0 0.0 0.0 0.0 1:0.0 2:0.06666667 3:0.0 4:0.53333336 5:0.0 6:0.33333334 7:0.033333335 8:0.0 9:0.033333335 
-1.0 -1.0 1.0 0.0 0.0 1.0 1.0 1:0.11111111 2:0.074074075 3:0.22222222 4:0.37037036 5:0.0 6:0.11111111 7:0.0 8:0.0 9:0.11111111 
-0.0 -1.0 0.0 0.0 0.0 1.0 0.0 1:0.03448276 2:0.06896552 3:0.13793103 4:0.44827586 5:0.0 6:0.03448276 7:0.0 8:0.0 9:0.27586207 
-0.0 -0.0 1.0 1.0 0.0 1.0 0.0 1:0.0 2:0.041666668 3:0.083333336 4:0.41666666 5:0.0 6:0.25 7:0.125 8:0.0 9:0.083333336 
-0.0 -1.0 0.0 0.0 0.0 0.0 0.0 1:0.0 2:0.041666668 3:0.25 4:0.45833334 5:0.0 6:0.125 7:0.041666668 8:0.0 9:0.083333336 
-1.0 -1.0 1.0 1.0 1.0 1.0 1.0 1:0.0 2:0.2631579 3:0.05263158 4:0.2631579 5:0.0 6:0.21052632 7:0.10526316 8:0.0 9:0.10526316 
-0.0 -0.0 0.0 0.0 1.0 1.0 0.0 1:0.0 2:0.06666667 3:0.0 4:0.46666667 5:0.0 6:0.0 7:0.0 8:0.2 9:0.26666668 
-1.0 -1.0 1.0 1.0 1.0 1.0 1.0 1:0.0 2:0.2 3:0.06666667 4:0.13333334 5:0.0 6:0.06666667 7:0.0 8:0.0 9:0.53333336 
-0.0 -0.0 -0.0 1.0 1.0 1.0 0.0 1:0.0 2:0.13333334 3:0.022222223 4:0.0 5:0.0 6:0.44444445 7:0.24444444 8:0.11111111 9:0.044444446 
-1.0 -0.0 -0.0 1.0 1.0 1.0 0.0 1:0.0 2:0.26666668 3:0.0 4:0.0 5:0.0 6:0.4 7:0.26666668 8:0.06666667 9:0.0 
-0.0 -0.0 -0.0 1.0 1.0 1.0 0.0 1:0.024390243 2:0.09756097 3:0.0 4:0.024390243 5:0.0 6:0.4390244 7:0.31707317 8:0.048780486 9:0.048780486 
-0.0 -0.0 -0.0 0.0 1.0 0.0 0.0 1:0.0 2:0.06666667 3:0.0 4:0.0 5:0.0 6:0.73333335 7:0.06666667 8:0.13333334 9:0.0 
-1.0 -1.0 -1.0 0.0 0.0 1.0 1.0 1:0.0 2:0.23529412 3:0.14705883 4:0.0 5:0.0 6:0.4117647 7:0.029411765 8:0.0 9:0.1764706 
-0.0 -0.0 -0.0 1.0 1.0 1.0 0.0 1:0.0 2:0.0 3:0.0 4:0.0 5:0.0 6:0.33333334 7:0.33333334 8:0.0 9:0.33333334 
-0.0 -0.0 -0.0 1.0 0.0 0.0 0.0 1:0.0 2:0.0 3:0.0 4:0.0 5:0.0 6:0.53846157 7:0.42307693 8:0.0 9:0.03846154 
-1.0 -1.0 -1.0 1.0 1.0 1.0 1.0 1:0.04761905 2:0.0952381 3:0.0 4:0.04761905 5:0.0 6:0.3809524 7:0.0952381 8:0.14285715 9:0.1904762 
-0.0 -0.0 -1.0 0.0 1.0 1.0 0.0 1:0.0 2:0.1 3:0.033333335 4:0.06666667 5:0.0 6:0.5 7:0.1 8:0.1 9:0.1 
-1.0 -0.0 -0.0 0.0 0.0 1.0 1.0 1:0.0 2:0.44444445 3:0.0 4:0.0 5:0.0 6:0.3888889 7:0.055555556 8:0.055555556 9:0.055555556 
-0.0 -0.0 -0.0 0.0 0.0 1.0 0.0 1:0.0 2:0.05263158 3:0.05263158 4:0.0 5:0.0 6:0.5263158 7:0.10526316 8:0.0 9:0.2631579 
-1.0 -1.0 -1.0 1.0 0.0 1.0 1.0 1:0.16 2:0.44 3:0.0 4:0.12 5:0.0 6:0.2 7:0.04 8:0.0 9:0.04 
-1.0 -1.0 -1.0 1.0 1.0 1.0 1.0 1:0.07692308 2:0.1923077 3:0.07692308 4:0.15384616 5:0.0 6:0.1923077 7:0.1923077 8:0.0 9:0.115384616 
-1.0 -1.0 -1.0 1.0 1.0 1.0 1.0 1:0.0 2:0.09090909 3:0.09090909 4:0.45454547 5:0.0 6:0.0 7:0.0 8:0.0 9:0.36363637 
-1.0 -1.0 -1.0 1.0 1.0 1.0 1.0 1:0.0 2:0.1 3:0.0 4:0.0 5:0.0 6:0.1 7:0.4 8:0.0 9:0.4 
-1.0 -1.0 -1.0 1.0 1.0 1.0 1.0 1:0.037037037 2:0.11111111 3:0.0 4:0.074074075 5:0.0 6:0.074074075 7:0.37037036 8:0.037037037 9:0.2962963 
-1.0 -0.0 -0.0 0.0 0.0 0.0 0.0 1:0.0 2:0.3275862 3:0.01724138 4:0.01724138 5:0.0 6:0.5344828 7:0.01724138 8:0.01724138 9:0.06896552 
-0.0 -0.0 -0.0 1.0 0.0 0.0 0.0 1:0.0 2:0.0 3:0.0 4:0.045454547 5:0.0 6:0.47727272 7:0.38636363 8:0.0 9:0.09090909 
-0.0 -0.0 -0.0 1.0 0.0 0.0 0.0 1:0.0 2:0.121212125 3:0.0 4:0.030303031 5:0.0 6:0.5151515 7:0.27272728 8:0.0 9:0.060606062 
-1.0 -0.0 -0.0 0.0 0.0 1.0 0.0 1:0.0 2:0.32352942 3:0.029411765 4:0.0 5:0.0 6:0.44117647 7:0.11764706 8:0.0 9:0.0882353 
-0.0 -0.0 -0.0 1.0 0.0 0.0 0.0 1:0.0 2:0.0 3:0.030303031 4:0.0 5:0.0 6:0.6060606 7:0.3030303 8:0.0 9:0.060606062 
-1.0 -1.0 -1.0 1.0 0.0 1.0 1.0 1:0.0 2:0.31578946 3:0.05263158 4:0.05263158 5:0.0 6:0.31578946 7:0.15789473 8:0.0 9:0.10526316 
-1.0 -0.0 -0.0 0.0 0.0 0.3493858631905646 0.0 1:0.0 2:0.36363637 3:0.0 4:0.0 5:0.0 6:0.45454547 7:0.045454547 8:0.045454547 9:0.09090909 
-1.0 -0.0 -0.0 1.0 0.0 0.0 0.0 1:0.0 2:0.33333334 3:0.0 4:0.0 5:0.0 6:0.46666667 7:0.2 8:0.0 9:0.0 
-0.0 -0.0 -0.0 1.0 0.0 0.0 0.0 1:0.033333335 2:0.033333335 3:0.033333335 4:0.033333335 5:0.0 6:0.53333336 7:0.26666668 8:0.033333335 9:0.033333335 
-0.0 -0.0 -0.0 1.0 0.0 0.0 0.0 1:0.0 2:0.1724138 3:0.01724138 4:0.01724138 5:0.0 6:0.5 7:0.22413793 8:0.01724138 9:0.05172414 
-1.0 -1.0 -1.0 1.0 0.0 1.0 1.0 1:0.0 2:0.23809524 3:0.04761905 4:0.14285715 5:0.0 6:0.33333334 7:0.23809524 8:0.0 9:0.0 
-0.0 -0.0 -1.0 1.0 0.0 0.0 0.0 1:0.0 2:0.0625 3:0.0 4:0.125 5:0.0 6:0.4375 7:0.375 8:0.0 9:0.0 
-0.0 -0.0 -0.0 1.0 0.0 0.0 0.0 1:0.0 2:0.22222222 3:0.0 4:0.055555556 5:0.0 6:0.5 7:0.16666667 8:0.055555556 9:0.0 
-1.0 -1.0 -1.0 1.0 1.0 1.0 1.0 1:0.04761905 2:0.1904762 3:0.04761905 4:0.04761905 5:0.0 6:0.3809524 7:0.14285715 8:0.04761905 9:0.0952381 
-0.0 -0.0 -1.0 1.0 0.0 0.0 0.0 1:0.0 2:0.18181819 3:0.054545455 4:0.054545455 5:0.0 6:0.47272727 7:0.14545454 8:0.036363635 9:0.054545455 
-1.0 -0.0 -0.0 0.0 0.0 0.0 0.0 1:0.0 2:0.35135135 3:0.0 4:0.027027028 5:0.0 6:0.4864865 7:0.08108108 8:0.054054055 9:0.0 
-1.0 -1.0 -1.0 1.0 1.0 1.0 1.0 1:0.0 2:0.04 3:0.12 4:0.0 5:0.0 6:0.28 7:0.08 8:0.04 9:0.44 
-1.0 -0.0 -0.0 1.0 1.0 1.0 0.0 1:0.0 2:0.21875 3:0.015625 4:0.03125 5:0.0 6:0.421875 7:0.203125 8:0.046875 9:0.0625 
-1.0 -0.0 -0.0 0.0 0.0 0.0 0.0 1:0.0 2:0.28947368 3:0.0 4:0.0 5:0.0 6:0.5263158 7:0.05263158 8:0.02631579 9:0.10526316 
-0.0 -0.0 -0.0 1.0 1.0 1.0 0.0 1:0.05 2:0.0 3:0.0 4:0.0 5:0.0 6:0.4 7:0.3 8:0.0 9:0.25 
-1.0 -1.0 -1.0 1.0 0.0 1.0 1.0 1:0.0 2:0.25 3:0.05 4:0.05 5:0.0 6:0.35 7:0.15 8:0.0 9:0.15 
-1.0 -0.0 -0.0 1.0 0.0 0.0 0.0 1:0.0 2:0.35714287 3:0.0 4:0.0 5:0.0 6:0.42857143 7:0.17857143 8:0.0 9:0.035714287 
-1.0 -0.0 -0.0 1.0 0.0 1.0 0.0 1:0.0 2:0.21276596 3:0.04255319 4:0.021276595 5:0.0 6:0.40425533 7:0.27659574 8:0.0 9:0.04255319 
-1.0 -0.0 -0.0 0.0 0.0 1.0 1.0 1:0.0 2:0.47058824 3:0.0 4:0.0 5:0.0 6:0.38235295 7:0.029411765 8:0.029411765 9:0.0882353 
-0.0 -1.0 -1.0 1.0 1.0 1.0 0.682636578885645 1:0.0 2:0.027027028 3:0.027027028 4:0.0 5:0.0 6:0.2972973 7:0.21621622 8:0.0 9:0.43243244 
-1.0 -0.0 -0.0 0.0 0.0 0.0 0.0 1:0.0 2:0.3529412 3:0.05882353 4:0.0 5:0.0 6:0.5294118 7:0.05882353 8:0.0 9:0.0 
-1.0 -1.0 -1.0 1.0 1.0 1.0 1.0 1:0.0 2:0.20689656 3:0.03448276 4:0.13793103 5:0.0 6:0.20689656 7:0.31034482 8:0.0 9:0.10344828 
-1.0 -1.0 -1.0 1.0 1.0 1.0 1.0 1:0.0 2:0.0 3:0.0625 4:0.0625 5:0.0 6:0.0625 7:0.3125 8:0.0625 9:0.4375 
-1.0 -0.0 -0.0 0.0 0.0 0.0 0.0 1:0.0 2:0.31111112 3:0.0 4:0.0 5:0.0 6:0.53333336 7:0.15555556 8:0.0 9:0.0 
-1.0 -0.0 -0.0 0.0 0.0 0.0 0.0 1:0.0 2:0.31111112 3:0.0 4:0.0 5:0.0 6:0.53333336 7:0.15555556 8:0.0 9:0.0 
-0.0 -0.0 -0.0 1.0 0.6731949668430358 1.0 0.0 1:0.0 2:0.05263158 3:0.05263158 4:0.0 5:0.0 6:0.42105263 7:0.36842105 8:0.0 9:0.10526316 
-0.0 -0.5848079833242977 -1.0 1.0 0.0 1.0 0.0 1:0.0 2:0.0 3:0.0 4:0.0 5:0.0 6:0.36363637 7:0.0 8:0.0 9:0.6363636 
-1.0 -0.0 -1.0 0.0 0.0 0.0 0.0 1:0.0 2:0.45 3:0.025 4:0.05 5:0.0 6:0.45 7:0.0 8:0.025 9:0.0 
-1.0 -0.0 -0.0 0.0 0.0 1.0 0.0 1:0.0 2:0.2 3:0.0 4:0.0 5:0.0 6:0.45 7:0.0 8:0.0 9:0.35 
-1.0 -0.0 -0.0 0.0 0.0 0.0 0.0 1:0.0 2:0.34146342 3:0.0 4:0.024390243 5:0.0 6:0.5609756 7:0.024390243 8:0.024390243 9:0.024390243 
-1.0 -1.0 -1.0 1.0 1.0 1.0 1.0 1:0.09090909 2:0.54545456 3:0.0 4:0.045454547 5:0.0 6:0.13636364 7:0.0 8:0.18181819 9:0.0 
-1.0 -1.0 -1.0 0.0 0.0 1.0 0.0 1:0.0 2:0.25 3:0.1 4:0.05 5:0.0 6:0.5 7:0.0 8:0.0 9:0.1 
-1.0 -1.0 -1.0 1.0 1.0 1.0 1.0 1:0.11111111 2:0.44444445 3:0.0 4:0.0 5:0.0 6:0.22222222 7:0.0 8:0.22222222 9:0.0 
-1.0 -0.491595749912146 -1.0 1.0 0.0 1.0 0.0 1:0.0 2:0.11111111 3:0.0 4:0.11111111 5:0.0 6:0.33333334 7:0.11111111 8:0.0 9:0.33333334 
-0.0 -0.0 -0.0 1.0 1.0 1.0 0.0 1:0.0 2:0.08695652 3:0.0 4:0.0 5:0.0 6:0.39130434 7:0.47826087 8:0.0 9:0.04347826 
-0.0 -1.0 -1.0 0.21850169953446466 1.0 1.0 1.0 1:0.14285715 2:0.0 3:0.0 4:0.0 5:0.0 6:0.42857143 7:0.0 8:0.14285715 9:0.2857143 
-1.0 -1.0 -1.0 1.0 1.0 1.0 1.0 1:0.04 2:0.12 3:0.04 4:0.04 5:0.0 6:0.24 7:0.04 8:0.0 9:0.48 
-0.0 -0.0 -0.0 1.0 0.0 0.0 0.0 1:0.0 2:0.06451613 3:0.0 4:0.0 5:0.0 6:0.61290324 7:0.22580644 8:0.032258064 9:0.06451613 
-1.0 -1.0 -1.0 1.0 1.0 1.0 0.0 1:0.0 2:0.1904762 3:0.0952381 4:0.04761905 5:0.0 6:0.42857143 7:0.14285715 8:0.04761905 9:0.04761905 
-1.0 -0.0 -0.0 0.0 0.0 0.0 0.0 1:0.0 2:0.37037036 3:0.0 4:0.0 5:0.0 6:0.4814815 7:0.074074075 8:0.037037037 9:0.037037037 
-1.0 -1.0 -1.0 1.0 0.4632709164203417 1.0 1.0 1:0.04 2:0.12 3:0.04 4:0.04 5:0.0 6:0.24 7:0.04 8:0.0 9:0.48 
-1.0 -0.0 -1.0 0.0 0.0 0.0 0.0 1:0.0 2:0.29166666 3:0.0 4:0.083333336 5:0.0 6:0.45833334 7:0.041666668 8:0.041666668 9:0.083333336 
-1.0 -1.0 -1.0 1.0 1.0 1.0 1.0 1:0.0 2:0.07692308 3:0.15384616 4:0.23076923 5:0.0 6:0.15384616 7:0.0 8:0.0 9:0.3846154 
-0.0 -1.0 -1.0 0.0 0.0 1.0 0.0 1:0.0 2:0.0625 3:0.125 4:0.0625 5:0.0 6:0.5 7:0.0 8:0.0 9:0.25 
-0.0 -1.0 -1.0 1.0 1.0 1.0 0.5781301450429183 1:0.0 2:0.054054055 3:0.027027028 4:0.054054055 5:0.0 6:0.3243243 7:0.3783784 8:0.08108108 9:0.08108108 
-0.0 -1.0 -1.0 1.0 0.0 1.0 0.0 1:0.0 2:0.0 3:0.125 4:0.0 5:0.0 6:0.375 7:0.125 8:0.0 9:0.375 
-0.0 -1.0 -1.0 1.0 1.0 1.0 1.0 1:0.0 2:0.0 3:0.041666668 4:0.041666668 5:0.0 6:0.25 7:0.41666666 8:0.0 9:0.25 
-0.0 -0.0 -0.0 1.0 0.0 0.0 0.0 1:0.0 2:0.0 3:0.0 4:0.025641026 5:0.0 6:0.64102566 7:0.33333334 8:0.0 9:0.0 
-0.0 -0.0 -0.0 1.0 0.0 0.0 0.0 1:0.0 2:0.11111111 3:0.0 4:0.055555556 5:0.0 6:0.5 7:0.2777778 8:0.0 9:0.055555556 
-0.0 -0.0 -0.0 1.0 0.0 0.0 0.0 1:0.0 2:0.0 3:0.0 4:0.0 5:0.0 6:0.5945946 7:0.35135135 8:0.0 9:0.054054055 
-0.0 -0.0 -0.0 1.0 0.0 1.0 0.0 1:0.0 2:0.071428575 3:0.0 4:0.035714287 5:0.0 6:0.5 7:0.17857143 8:0.035714287 9:0.17857143 
-1.0 -0.0 -0.0 0.0 0.0 0.0 0.0 1:0.0 2:0.2682927 3:0.0 4:0.0 5:0.0 6:0.5365854 7:0.048780486 8:0.07317073 9:0.07317073 
-1.0 -0.0 -0.0 0.0 0.0 0.0 0.0 1:0.0 2:0.36666667 3:0.0 4:0.033333335 5:0.0 6:0.5 7:0.1 8:0.0 9:0.0 
-1.0 -1.0 -0.0 1.0 0.0 1.0 1.0 1:0.0 2:0.2857143 3:0.0 4:0.0 5:0.0 6:0.2857143 7:0.14285715 8:0.0 9:0.2857143 
-1.0 -1.0 -1.0 0.0 1.0 1.0 1.0 1:0.33333334 2:0.14285715 3:0.04761905 4:0.04761905 5:0.0 6:0.33333334 7:0.0 8:0.0 9:0.0952381 
-0.0 -0.0 -0.0 1.0 0.0 0.0 0.0 1:0.0 2:0.06666667 3:0.0 4:0.0 5:0.0 6:0.6 7:0.2 8:0.0 9:0.13333334 
-1.0 -0.0 -0.1718097750014299 1.0 0.0 1.0 0.0 1:0.0 2:0.2777778 3:0.0 4:0.055555556 5:0.0 6:0.3888889 7:0.22222222 8:0.0 9:0.055555556 
-1.0 -0.0 -0.0 0.0 1.0 1.0 1.0 1:0.0 2:0.3846154 3:0.0 4:0.0 5:0.0 6:0.3846154 7:0.07692308 8:0.15384616 9:0.0 
-1.0 -1.0 -1.0 1.0 1.0 1.0 1.0 1:0.0 2:0.125 3:0.0625 4:0.125 5:0.0 6:0.1875 7:0.4375 8:0.0 9:0.0625 
-1.0 -0.0 -0.0 0.0 0.0 0.0 0.0 1:0.0 2:0.31578946 3:0.0 4:0.0 5:0.0 6:0.5964912 7:0.01754386 8:0.03508772 9:0.03508772 
-1.0 -1.0 -1.0 1.0 0.0 1.0 1.0 1:0.0 2:0.22727273 3:0.09090909 4:0.0 5:0.0 6:0.3181818 7:0.18181819 8:0.0 9:0.18181819 
-1.0 -1.0 -0.0 0.0 0.0 1.0 1.0 1:0.0 2:0.525 3:0.025 4:0.0 5:0.0 6:0.35 7:0.05 8:0.025 9:0.025 
-1.0 -0.0 -0.0 0.0 0.0 1.0 0.677820474672352 1:0.0 2:0.46666667 3:0.0 4:0.0 5:0.0 6:0.4 7:0.06666667 8:0.0 9:0.06666667 
-1.0 -1.0 -1.0 1.0 0.0 1.0 1.0 1:0.0 2:0.3 3:0.0 4:0.1 5:0.0 6:0.2 7:0.0 8:0.0 9:0.4 
-1.0 -0.0 -0.0 0.0 0.0 0.0 0.0 1:0.0 2:0.3255814 3:0.023255814 4:0.023255814 5:0.0 6:0.44186047 7:0.093023255 8:0.046511628 9:0.046511628 
-0.0 -0.0 -0.0 1.0 0.0 0.0 0.0 1:0.0 2:0.11764706 3:0.0 4:0.029411765 5:0.0 6:0.5294118 7:0.1764706 8:0.0 9:0.14705883 
-1.0 -0.0 -1.0 1.0 0.0 1.0 0.0 1:0.0 2:0.21428572 3:0.0 4:0.071428575 5:0.0 6:0.35714287 7:0.2857143 8:0.0 9:0.071428575 
-0.0 -1.0 -0.0 1.0 1.0 1.0 0.0 1:0.0 2:0.05882353 3:0.0 4:0.0 5:0.0 6:0.29411766 7:0.3529412 8:0.0 9:0.29411766 
-1.0 -1.0 -1.0 1.0 1.0 1.0 1.0 1:0.0 2:0.03846154 3:0.26923078 4:0.3846154 5:0.0 6:0.115384616 7:0.0 8:0.0 9:0.1923077 
-1.0 -1.0 -1.0 1.0 1.0 1.0 1.0 1:0.0 2:0.0 3:0.0 4:0.7058824 5:0.0 6:0.11764706 7:0.0 8:0.0 9:0.1764706 
-0.0 -0.0 -0.0 1.0 0.0 0.0 0.0 1:0.0 2:0.09090909 3:0.0 4:0.0 5:0.0 6:0.6363636 7:0.24242425 8:0.030303031 9:0.0 
-1.0 -0.0 -0.0 0.0 0.0 1.0 0.0 1:0.0 2:0.23809524 3:0.0 4:0.0 5:0.0 6:0.42857143 7:0.0952381 8:0.04761905 9:0.1904762 
-1.0 -1.0 -1.0 1.0 1.0 1.0 1.0 1:0.0 2:0.0 3:0.0 4:0.4 5:0.0 6:0.0 7:0.0 8:0.0 9:0.6 
-1.0 -1.0 -0.0 1.0 0.0 1.0 1.0 1:0.0 2:0.3548387 3:0.09677419 4:0.0 5:0.0 6:0.32258064 7:0.16129032 8:0.0 9:0.06451613 
-0.0 -0.0 -0.43448205386487515 1.0 0.0 1.0 0.0 1:0.0 2:0.15151516 3:0.030303031 4:0.060606062 5:0.0 6:0.42424244 7:0.3030303 8:0.0 9:0.030303031 
-0.0 -0.0 -0.0 1.0 1.0 0.0 0.0 1:0.0 2:0.114285715 3:0.0 4:0.028571429 5:0.0 6:0.45714286 7:0.31428573 8:0.028571429 9:0.057142857 
-1.0 -0.0 -0.0 1.0 1.0 1.0 1.0 1:0.0 2:0.3 3:0.0 4:0.0 5:0.0 6:0.3 7:0.4 8:0.0 9:0.0 
-1.0 -0.0 -0.0 0.0 0.0 1.0 0.0 1:0.0 2:0.3 3:0.033333335 4:0.0 5:0.0 6:0.43333334 7:0.033333335 8:0.033333335 9:0.16666667 
-1.0 -0.0 -1.0 0.0 0.0 0.717250853918815 0.0 1:0.0 2:0.22222222 3:0.0 4:0.11111111 5:0.0 6:0.44444445 7:0.11111111 8:0.055555556 9:0.055555556 
-1.0 -1.0 -0.6524176025907663 1.0 0.0 1.0 1.0 1:0.0 2:0.33333334 3:0.0 4:0.0 5:0.0 6:0.29166666 7:0.041666668 8:0.0 9:0.33333334 
-0.0 -0.0 -0.0 1.0 1.0 1.0 0.0 1:0.0 2:0.1 3:0.033333335 4:0.033333335 5:0.0 6:0.43333334 7:0.26666668 8:0.1 9:0.033333335 
-0.0 -0.0 -0.0 0.9762705380045097 0.0 0.0 0.0 1:0.0 2:0.23076923 3:0.025641026 4:0.0 5:0.0 6:0.53846157 7:0.17948718 8:0.025641026 9:0.0 
-1.0 -1.0 -1.0 1.0 1.0 1.0 1.0 1:0.0 2:0.05882353 3:0.05882353 4:0.05882353 5:0.0 6:0.29411766 7:0.1764706 8:0.11764706 9:0.23529412 
-1.0 -1.0 -0.0 1.0 1.0 1.0 1.0 1:0.0 2:0.2195122 3:0.0 4:0.024390243 5:0.0 6:0.19512194 7:0.5121951 8:0.0 9:0.048780486 
-0.0 -0.0 -0.0 1.0 0.0 0.0 0.0 1:0.0 2:0.2173913 3:0.0 4:0.0 5:0.0 6:0.47826087 7:0.3043478 8:0.0 9:0.0 
-0.0 -0.0 -0.0 1.0 0.0 0.0 0.0 1:0.0 2:0.16 3:0.0 4:0.0 5:0.0 6:0.5466667 7:0.18666667 8:0.04 9:0.06666667 
-1.0 -0.0 -0.0 0.0 0.0 0.0 0.0 1:0.0 2:0.3448276 3:0.03448276 4:0.0 5:0.0 6:0.51724136 7:0.03448276 8:0.03448276 9:0.03448276 
-1.0 -0.0 -0.0 1.0 0.0 0.0 0.0 1:0.0 2:0.2857143 3:0.0 4:0.0 5:0.0 6:0.42857143 7:0.2857143 8:0.0 9:0.0 
-1.0 -0.0 -0.0 1.0 1.0 0.0 0.0 1:0.0 2:0.2631579 3:0.0 4:0.0 5:0.0 6:0.47368422 7:0.15789473 8:0.10526316 9:0.0 
-1.0 -1.0 -0.0 1.0 1.0 1.0 1.0 1:0.0 2:0.32608697 3:0.04347826 4:0.02173913 5:0.0 6:0.3478261 7:0.19565217 8:0.04347826 9:0.02173913 
-1.0 -1.0 -1.0 1.0 1.0 1.0 1.0 1:0.0 2:0.0 3:0.1 4:0.0 5:0.0 6:0.1 7:0.4 8:0.0 9:0.4 
-1.0 -1.0 -1.0 0.0 0.0 1.0 1.0 1:0.0 2:0.2 3:0.0 4:0.4 5:0.0 6:0.2 7:0.0 8:0.0 9:0.2 
-1.0 -0.0 -0.0 0.0 1.0 0.0 0.0 1:0.033333335 2:0.26666668 3:0.0 4:0.033333335 5:0.0 6:0.5 7:0.06666667 8:0.1 9:0.0 
-1.0 -0.0 -0.0 0.0 0.0 0.0 0.0 1:0.0 2:0.29268292 3:0.0 4:0.0 5:0.0 6:0.58536583 7:0.024390243 8:0.024390243 9:0.07317073 
-1.0 -0.0 -0.0 0.0 0.0 0.0 0.0 1:0.0 2:0.47368422 3:0.0 4:0.0 5:0.0 6:0.47368422 7:0.05263158 8:0.0 9:0.0 
-1.0 -0.0 -0.0 0.0 0.0 0.0 0.0 1:0.0 2:0.26666668 3:0.06666667 4:0.0 5:0.0 6:0.46666667 7:0.13333334 8:0.0 9:0.06666667 
-0.0 -0.0 -0.0 1.0 0.0 0.0 0.0 1:0.0 2:0.0 3:0.0 4:0.0 5:0.0 6:0.62068963 7:0.31034482 8:0.0 9:0.06896552 
-0.0 -0.0 -0.0 0.0 1.0 0.0 0.0 1:0.0 2:0.2 3:0.0 4:0.0 5:0.0 6:0.6 7:0.0 8:0.2 9:0.0 
-1.0 -1.0 -0.0 0.0 1.0 1.0 1.0 1:0.0 2:0.35714287 3:0.071428575 4:0.0 5:0.0 6:0.42857143 7:0.0 8:0.071428575 9:0.071428575 
-1.0 -1.0 -1.0 1.0 0.0 1.0 1.0 1:0.0 2:0.2413793 3:0.0 4:0.06896552 5:0.0 6:0.27586207 7:0.03448276 8:0.0 9:0.37931034 
-1.0 -1.0 -1.0 1.0 1.0 1.0 1.0 1:0.071428575 2:0.14285715 3:0.0 4:0.071428575 5:0.0 6:0.14285715 7:0.5714286 8:0.0 9:0.0 
-1.0 -0.0 -0.0 1.0 1.0 0.0 0.0 1:0.0 2:0.2631579 3:0.0 4:0.0 5:0.0 6:0.47368422 7:0.15789473 8:0.10526316 9:0.0 
-1.0 -0.0 -0.0 0.0 0.0 0.0 0.0 1:0.0 2:0.3478261 3:0.0 4:0.0 5:0.0 6:0.6086956 7:0.04347826 8:0.0 9:0.0 
-1.0 -0.0 -0.0 0.0 0.0 1.0 0.0 1:0.0 2:0.23529412 3:0.0 4:0.0 5:0.0 6:0.47058824 7:0.05882353 8:0.0 9:0.23529412 
-1.0 -1.0 -1.0 1.0 1.0 1.0 1.0 1:0.16666667 2:0.0 3:0.16666667 4:0.0 5:0.0 6:0.16666667 7:0.0 8:0.16666667 9:0.33333334 
-1.0 -1.0 -1.0 1.0 0.0 1.0 1.0 1:0.0 2:0.2413793 3:0.0 4:0.06896552 5:0.0 6:0.27586207 7:0.03448276 8:0.0 9:0.37931034 
-0.0 -1.0 -0.0 0.0 0.0 1.0 0.0 1:0.0 2:0.0 3:0.125 4:0.0 5:0.0 6:0.5 7:0.0 8:0.0 9:0.375 
-1.0 -0.0 -0.0 0.0 0.0 0.0 0.0 1:0.0 2:0.3478261 3:0.0 4:0.04347826 5:0.0 6:0.6086956 7:0.0 8:0.0 9:0.0 
-0.0 -1.0 -1.0 1.0 1.0 1.0 1.0 1:0.2 2:0.0 3:0.0 4:0.0 5:0.0 6:0.4 7:0.0 8:0.2 9:0.2 
-0.0 -0.0 -1.0 0.0 0.0 1.0 0.0 1:0.0 2:0.05263158 3:0.0 4:0.36842105 5:0.0 6:0.42105263 7:0.0 8:0.05263158 9:0.10526316 
-1.0 -0.0 -1.0 0.0 0.0 0.0 0.0 1:0.0 2:0.3529412 3:0.0 4:0.11764706 5:0.0 6:0.47058824 7:0.05882353 8:0.0 9:0.0 
-1.0 -1.0 -0.0 1.0 1.0 1.0 1.0 1:0.0 2:0.24 3:0.0 4:0.04 5:0.0 6:0.28 7:0.4 8:0.0 9:0.04 
-1.0 -0.0 -0.0 0.0 0.0 0.0 0.0 1:0.0 2:0.25641027 3:0.025641026 4:0.0 5:0.0 6:0.4871795 7:0.15384616 8:0.0 9:0.07692308 
-1.0 -0.0 -0.0 0.0 0.0 0.0 0.0 1:0.0 2:0.27586207 3:0.06896552 4:0.03448276 5:0.0 6:0.51724136 7:0.06896552 8:0.03448276 9:0.0 
-0.0 -0.0 -0.0 1.0 0.0 0.0 0.0 1:0.0 2:0.04761905 3:0.0 4:0.04761905 5:0.0 6:0.5714286 7:0.30952382 8:0.023809524 9:0.0 
-0.0 -0.0 -1.0 0.0 0.0 1.0 0.0 1:0.0 2:0.14285715 3:0.0 4:0.071428575 5:0.0 6:0.5 7:0.071428575 8:0.0 9:0.21428572 
-1.0 -1.0 -1.0 1.0 1.0 1.0 1.0 1:0.04347826 2:0.08695652 3:0.08695652 4:0.0 5:0.0 6:0.17391305 7:0.04347826 8:0.0 9:0.5652174 
-0.0 -1.0 -1.0 1.0 1.0 1.0 1.0 1:0.09090909 2:0.0 3:0.0 4:0.0 5:0.0 6:0.27272728 7:0.18181819 8:0.0 9:0.45454547 
-1.0 -1.0 -0.9187163277176493 0.0 0.0 0.0 1.0 1:0.0 2:0.4047619 3:0.0952381 4:0.023809524 5:0.0 6:0.45238096 7:0.0 8:0.023809524 9:0.0 
-1.0 -0.0 -0.0 0.0 0.0 0.0 0.0 1:0.0 2:0.34146342 3:0.0 4:0.0 5:0.0 6:0.5121951 7:0.024390243 8:0.0 9:0.12195122 
-1.0 -1.0 -1.0 0.0 1.0 1.0 1.0 1:0.06666667 2:0.46666667 3:0.06666667 4:0.0 5:0.0 6:0.26666668 7:0.0 8:0.06666667 9:0.06666667 
-0.0 -0.0 -1.0 1.0 0.0 1.0 0.0 1:0.0 2:0.0 3:0.0 4:0.071428575 5:0.0 6:0.5 7:0.14285715 8:0.0 9:0.2857143 
-1.0 -1.0 -1.0 1.0 1.0 1.0 1.0 1:0.0 2:0.25 3:0.083333336 4:0.0 5:0.0 6:0.25 7:0.16666667 8:0.16666667 9:0.083333336 
-0.0 -0.0 -0.0 0.0 0.0 1.0 0.0 1:0.0 2:0.13953489 3:0.069767445 4:0.0 5:0.0 6:0.53488374 7:0.023255814 8:0.069767445 9:0.1627907 
-1.0 -0.0 -0.0 0.0 0.0 1.0 0.0 1:0.0 2:0.34146342 3:0.024390243 4:0.0 5:0.0 6:0.41463414 7:0.024390243 8:0.048780486 9:0.14634146 
-0.0 -0.0 -0.0 1.0 0.0 0.0 0.0 1:0.0 2:0.10714286 3:0.0 4:0.0 5:0.0 6:0.58928573 7:0.23214285 8:0.017857144 9:0.05357143 
-0.0 -1.0 -1.0 1.0 1.0 1.0 0.0 1:0.0 2:0.045454547 3:0.045454547 4:0.045454547 5:0.0 6:0.3181818 7:0.45454547 8:0.0 9:0.09090909 
-1.0 -1.0 -0.0 0.0 0.0 1.0 1.0 1:0.0 2:0.42105263 3:0.05263158 4:0.0 5:0.0 6:0.36842105 7:0.05263158 8:0.05263158 9:0.05263158 
-1.0 -0.0 -0.0 0.0 0.0 0.0 0.0 1:0.0 2:0.30769232 3:0.0 4:0.0 5:0.0 6:0.53846157 7:0.15384616 8:0.0 9:0.0 
-1.0 -1.0 -1.0 1.0 1.0 1.0 1.0 1:0.0 2:0.09375 3:0.03125 4:0.15625 5:0.0 6:0.28125 7:0.1875 8:0.0 9:0.25 
-1.0 -1.0 -1.0 1.0 1.0 1.0 1.0 1:0.027777778 2:0.25 3:0.055555556 4:0.0 5:0.0 6:0.30555555 7:0.055555556 8:0.19444445 9:0.11111111 
-1.0 -1.0 -1.0 1.0 0.0 1.0 1.0 1:0.0 2:0.25 3:0.0 4:0.05 5:0.0 6:0.3 7:0.25 8:0.0 9:0.15 
-0.0 -0.0 -1.0 1.0 0.0 0.0 0.0 1:0.0 2:0.1521739 3:0.0 4:0.08695652 5:0.0 6:0.5 7:0.23913044 8:0.0 9:0.02173913 
-0.0 -0.0 -0.0 1.0 0.0 0.0 0.0 1:0.0 2:0.04761905 3:0.0 4:0.04761905 5:0.0 6:0.5714286 7:0.30952382 8:0.023809524 9:0.0 
-1.0 -0.0 -0.0 0.0 0.0 0.0 0.0 1:0.0 2:0.27586207 3:0.0 4:0.0 5:0.0 6:0.51724136 7:0.10344828 8:0.0 9:0.10344828 
-1.0 -0.0 -0.0 0.0 0.0 0.0 0.0 1:0.0 2:0.3 3:0.0 4:0.033333335 5:0.0 6:0.56666666 7:0.033333335 8:0.033333335 9:0.033333335 
-1.0 -0.26637968173528664 -1.0 1.0 1.0 1.0 0.0 1:0.0 2:0.15 3:0.0 4:0.05 5:0.0 6:0.4 7:0.2 8:0.2 9:0.0 
-0.0 -0.0 -0.0 1.0 0.0 0.0 0.0 1:0.044444446 2:0.2 3:0.0 4:0.022222223 5:0.0 6:0.4888889 7:0.24444444 8:0.0 9:0.0 
-0.0 -0.0 -0.0 1.0 0.0 0.0 0.0 1:0.022727273 2:0.09090909 3:0.0 4:0.045454547 5:0.0 6:0.54545456 7:0.29545453 8:0.0 9:0.0 
-1.0 -0.0 -0.0 0.0 0.0 0.0 0.0 1:0.0 2:0.27272728 3:0.0 4:0.018181818 5:0.0 6:0.4909091 7:0.09090909 8:0.07272727 9:0.054545455 
-1.0 -1.0 -0.0 0.0 0.0 0.0 0.0 1:0.0 2:0.4 3:0.06666667 4:0.0 5:0.0 6:0.46666667 7:0.0 8:0.06666667 9:0.0 
-1.0 -0.0 -0.0 0.0 0.0 0.0 0.0 1:0.0 2:0.4 3:0.0 4:0.0 5:0.0 6:0.6 7:0.0 8:0.0 9:0.0 
-0.0 -0.0 -0.0 1.0 1.0 1.0 0.0 1:0.0 2:0.14705883 3:0.029411765 4:0.029411765 5:0.0 6:0.44117647 7:0.20588236 8:0.14705883 9:0.0 
-1.0 -1.0 -1.0 1.0 1.0 1.0 1.0 1:0.0 2:0.2857143 3:0.035714287 4:0.035714287 5:0.0 6:0.35714287 7:0.21428572 8:0.035714287 9:0.035714287 
-1.0 -1.0 -1.0 1.0 1.0 1.0 1.0 1:0.0 2:0.1 3:0.7 4:0.06666667 5:0.0 6:0.1 7:0.0 8:0.0 9:0.033333335 
-0.0 -1.0 -0.0 1.0 1.0 1.0 0.0 1:0.0 2:0.115384616 3:0.03846154 4:0.0 5:0.0 6:0.3846154 7:0.42307693 8:0.03846154 9:0.0 
-1.0 -0.0 -0.0 1.0 0.0 1.0 0.0 1:0.0 2:0.20689656 3:0.0 4:0.03448276 5:0.0 6:0.37931034 7:0.13793103 8:0.0 9:0.2413793 
-0.0 -1.0 -1.0 1.0 1.0 1.0 0.0 1:0.0 2:0.037037037 3:0.037037037 4:0.037037037 5:0.0 6:0.33333334 7:0.37037036 8:0.0 9:0.18518518 
-1.0 -0.0 -0.0 0.0 0.0 0.0 0.0 1:0.0 2:0.37254903 3:0.0 4:0.0 5:0.0 6:0.50980395 7:0.078431375 8:0.019607844 9:0.019607844 
-1.0 -1.0 -1.0 1.0 1.0 1.0 1.0 1:0.0 2:0.0 3:0.0 4:0.5 5:0.0 6:0.0 7:0.0 8:0.0 9:0.5 
-1.0 -1.0 -1.0 1.0 1.0 1.0 1.0 1:0.0 2:0.083333336 3:0.0 4:0.16666667 5:0.0 6:0.25 7:0.25 8:0.0 9:0.25 
-0.0 -0.0 -0.0 1.0 0.0 1.0 0.0 1:0.0 2:0.15 3:0.0 4:0.05 5:0.0 6:0.45 7:0.15 8:0.0 9:0.2 
-1.0 -0.0 -0.0 0.0 0.0 0.0 0.0 1:0.0 2:0.2631579 3:0.02631579 4:0.0 5:0.0 6:0.5263158 7:0.078947365 8:0.0 9:0.10526316 
-1.0 -0.0 -0.0 0.0 0.0 0.0 0.0 1:0.0 2:0.2631579 3:0.02631579 4:0.0 5:0.0 6:0.5263158 7:0.078947365 8:0.0 9:0.10526316 
-0.0 -0.0 -1.0 0.0 0.9428101441691495 0.0 0.0 1:0.0 2:0.09090909 3:0.0 4:0.09090909 5:0.0 6:0.54545456 7:0.0 8:0.09090909 9:0.18181819 
-0.0 -0.0 -0.0 1.0 1.0 1.0 0.0 1:0.027027028 2:0.10810811 3:0.0 4:0.027027028 5:0.0 6:0.43243244 7:0.24324325 8:0.027027028 9:0.13513513 
-0.0 -0.0 -1.0 0.0 0.0 0.0 0.0 1:0.0 2:0.06666667 3:0.0 4:0.13333334 5:0.0 6:0.6 7:0.13333334 8:0.0 9:0.06666667 
-1.0 -0.0 -0.0 0.0 1.0 0.0 0.0 1:0.0 2:0.31578946 3:0.0 4:0.0 5:0.0 6:0.47368422 7:0.10526316 8:0.10526316 9:0.0 
-1.0 -1.0 -1.0 1.0 0.0 1.0 1.0 1:0.0 2:0.11111111 3:0.11111111 4:0.0 5:0.0 6:0.33333334 7:0.0 8:0.0 9:0.44444445 
-0.0 -0.0 -0.0 1.0 1.0 0.0 0.0 1:0.0 2:0.21621622 3:0.0 4:0.0 5:0.0 6:0.45945945 7:0.24324325 8:0.054054055 9:0.027027028 
-1.0 -0.0 -0.0 1.0 0.0 1.0 0.0 1:0.0 2:0.21875 3:0.0 4:0.03125 5:0.0 6:0.4375 7:0.1875 8:0.03125 9:0.09375 
-1.0 -0.0 -0.0 0.0 0.0 1.0 0.0 1:0.0 2:0.33333334 3:0.033333335 4:0.033333335 5:0.0 6:0.43333334 7:0.033333335 8:0.0 9:0.13333334 
-1.0 -0.0 -0.0 0.0 0.0 0.0 0.0 1:0.0 2:0.35714287 3:0.0 4:0.0 5:0.0 6:0.58928573 7:0.017857144 8:0.035714287 9:0.0 
-0.0 -0.0 -0.0 1.0 1.0 0.0 0.0 1:0.0 2:0.23255815 3:0.0 4:0.023255814 5:0.0 6:0.5116279 7:0.1627907 8:0.069767445 9:0.0 
-0.0 -0.0 -0.0 1.0 1.0 1.0 0.0 1:0.0 2:0.032258064 3:0.0 4:0.032258064 5:0.0 6:0.38709676 7:0.516129 8:0.032258064 9:0.0 
-1.0 -0.0 -0.0 0.0 0.0 0.0 0.0 1:0.0 2:0.2413793 3:0.0 4:0.0 5:0.0 6:0.51724136 7:0.03448276 8:0.03448276 9:0.1724138 
-0.0 -0.0 -0.0 1.0 0.0 1.0 0.0 1:0.0 2:0.0 3:0.0 4:0.04 5:0.0 6:0.44 7:0.28 8:0.0 9:0.24 
-0.0 -1.0 -1.0 0.0 1.0 1.0 0.0 1:0.0 2:0.029411765 3:0.0882353 4:0.029411765 5:0.0 6:0.5588235 7:0.029411765 8:0.11764706 9:0.14705883 
-0.0 -0.0 -0.0 0.0 0.0 1.0 0.0 1:0.045454547 2:0.18181819 3:0.0 4:0.0 5:0.0 6:0.5 7:0.045454547 8:0.0 9:0.22727273 
-1.0 -1.0 -0.0 0.0 0.0 1.0 0.0 1:0.0 2:0.125 3:0.041666668 4:0.0 5:0.0 6:0.41666666 7:0.041666668 8:0.041666668 9:0.33333334 
-0.0 -0.0 -0.0 1.0 0.0 0.0 0.0 1:0.0 2:0.0 3:0.0 4:0.033333335 5:0.0 6:0.53333336 7:0.43333334 8:0.0 9:0.0 
-0.0 -0.0 -1.0 0.0 0.0 0.2125218392866436 0.0 1:0.02631579 2:0.078947365 3:0.02631579 4:0.05263158 5:0.0 6:0.55263156 7:0.02631579 8:0.05263158 9:0.18421052 
-1.0 -0.0 -0.0 0.0 0.0 0.0 0.0 1:0.0 2:0.31578946 3:0.0 4:0.0 5:0.0 6:0.57894737 7:0.0 8:0.0 9:0.10526316 
-0.0 -0.0 -0.0 1.0 1.0 0.0 0.0 1:0.05263158 2:0.10526316 3:0.0 4:0.0 5:0.0 6:0.47368422 7:0.31578946 8:0.05263158 9:0.0 
-0.0 -0.0 -0.0 1.0 1.0 1.0 0.0 1:0.0 2:0.0 3:0.05 4:0.05 5:0.0 6:0.5 7:0.25 8:0.05 9:0.1 
-1.0 -1.0 -1.0 0.6002301537714898 0.1517571459343586 1.0 1.0 1:0.0 2:0.875 3:0.0 4:0.125 5:0.0 6:0.0 7:0.0 8:0.0 9:0.0 
-1.0 -0.0 -0.0 0.0 0.0 0.0 0.0 1:0.013888889 2:0.30555555 3:0.013888889 4:0.0 5:0.0 6:0.5694444 7:0.041666668 8:0.041666668 9:0.013888889 
-0.0 -0.0 -0.0 1.0 0.0 0.0 0.0 1:0.0 2:0.13043478 3:0.0 4:0.0 5:0.0 6:0.54347825 7:0.26086956 8:0.04347826 9:0.02173913 
-1.0 -1.0 -1.0 0.0 0.0 1.0 1.0 1:0.0 2:0.5 3:0.05 4:0.05 5:0.0 6:0.35 7:0.0 8:0.05 9:0.0 
-1.0 -1.0 -1.0 0.0 0.0 1.0 1.0 1:0.0 2:0.44827586 3:0.03448276 4:0.03448276 5:0.0 6:0.37931034 7:0.0 8:0.0 9:0.10344828 
-1.0 -0.0 -0.0 0.0 0.0 0.0 0.0 1:0.0 2:0.34 3:0.02 4:0.0 5:0.0 6:0.64 7:0.0 8:0.0 9:0.0 
-1.0 -0.0 -0.0 0.0 0.0 0.0 0.0 1:0.0 2:0.2962963 3:0.0 4:0.037037037 5:0.0 6:0.4814815 7:0.12962963 8:0.018518519 9:0.037037037 
-0.0 -1.0 -0.0 0.0 0.0 0.0 0.0 1:0.0 2:0.037037037 3:0.18518518 4:0.0 5:0.0 6:0.6296296 7:0.0 8:0.037037037 9:0.11111111 
-0.8988932664198845 -1.0 -1.0 1.0 1.0 1.0 1.0 1:0.0 2:0.0 3:0.0 4:0.2857143 5:0.0 6:0.14285715 7:0.2857143 8:0.0 9:0.2857143 
-0.0 -0.0 -0.0 1.0 0.0 0.0 0.0 1:0.0 2:0.0 3:0.0 4:0.0 5:0.0 6:0.59574467 7:0.34042552 8:0.021276595 9:0.04255319 
-0.0 -0.0 -0.0 1.0 0.0 0.0 0.0 1:0.0 2:0.033333335 3:0.0 4:0.0 5:0.0 6:0.5 7:0.36666667 8:0.0 9:0.1 
-1.0 -0.0 -1.0 0.0 0.0 0.0 0.0 1:0.0 2:0.23529412 3:0.0 4:0.11764706 5:0.0 6:0.47058824 7:0.11764706 8:0.0 9:0.05882353 
-0.0 -0.0 -0.0 -0.0 1.0 0.0 0.0 1:0.0 2:0.06896552 3:0.0 4:0.0 5:0.0 6:0.03448276 7:0.62068963 8:0.2413793 9:0.03448276 
-1.0 -0.0 -0.0 -1.0 0.0 1.0 0.0 1:0.0 2:0.13636364 3:0.0 4:0.0 5:0.0 6:0.36363637 7:0.4090909 8:0.0 9:0.09090909 
-0.0 -0.0 -0.0 -1.0 0.0 0.40082714507041384 0.0 1:0.0 2:0.08 3:0.04 4:0.0 5:0.0 6:0.4 7:0.4 8:0.0 9:0.08 
-1.0 -1.0 -1.0 -1.0 1.0 1.0 1.0 1:0.0 2:0.20454545 3:0.022727273 4:0.022727273 5:0.0 6:0.36363637 7:0.29545453 8:0.022727273 9:0.06818182 
-1.0 -0.3385871886284747 -1.0 -1.0 1.0 1.0 0.0 1:0.0 2:0.2 3:0.0 4:0.0 5:0.0 6:0.46 7:0.3 8:0.0 9:0.04 
-0.0 -0.0 -1.0 -1.0 1.0 1.0 0.0 1:0.03846154 2:0.0 3:0.03846154 4:0.07692308 5:0.0 6:0.26923078 7:0.3846154 8:0.03846154 9:0.15384616 
-1.0 -1.0 -1.0 -1.0 1.0 1.0 1.0 1:0.0 2:0.14285715 3:0.0 4:0.071428575 5:0.0 6:0.5 7:0.21428572 8:0.0 9:0.071428575 
-1.0 -1.0 -1.0 -1.0 1.0 1.0 1.0 1:0.074074075 2:0.14814815 3:0.0 4:0.11111111 5:0.0 6:0.18518518 7:0.33333334 8:0.037037037 9:0.11111111 
-0.0 -0.0 -0.0 -0.0 0.0 1.0 0.0 1:0.0 2:0.0 3:0.05263158 4:0.05263158 5:0.0 6:0.0 7:0.47368422 8:0.0 9:0.42105263 
-0.0 -0.0 -0.0 -0.0 1.0 0.0 0.0 1:0.0 2:0.0 3:0.0 4:0.0 5:0.0 6:0.14285715 7:0.5 8:0.35714287 9:0.0 
-0.2805890446659927 -0.0 -0.0 -1.0 0.0 1.0 0.0 1:0.0 2:0.03846154 3:0.03846154 4:0.0 5:0.0 6:0.5 7:0.34615386 8:0.0 9:0.07692308 
-1.0 -0.0 -0.0 -1.0 0.0 0.0 0.0 1:0.0 2:0.1764706 3:0.0 4:0.05882353 5:0.0 6:0.1764706 7:0.47058824 8:0.05882353 9:0.05882353 
-0.0 -0.0 -0.0 -1.0 1.0 1.0 0.0 1:0.0 2:0.1 3:0.0 4:0.0 5:0.0 6:0.2 7:0.4 8:0.1 9:0.2 
-1.0 -1.0 -1.0 -1.0 1.0 1.0 1.0 1:0.15384616 2:0.1923077 3:0.03846154 4:0.115384616 5:0.0 6:0.115384616 7:0.15384616 8:0.0 9:0.23076923 
-0.0 -0.0 -0.0 -0.0 0.0 1.0 0.0 1:0.0 2:0.03846154 3:0.0 4:0.07692308 5:0.0 6:0.07692308 7:0.46153846 8:0.03846154 9:0.30769232 
-1.0 -1.0 -0.0 -1.0 0.0 1.0 0.0 1:0.0 2:0.13207547 3:0.11320755 4:0.018867925 5:0.0 6:0.3018868 7:0.3773585 8:0.018867925 9:0.03773585 
-0.0 -0.0 -0.0 -0.0 1.0 0.0 0.0 1:0.055555556 2:0.055555556 3:0.055555556 4:0.0 5:0.0 6:0.055555556 7:0.5555556 8:0.16666667 9:0.055555556 
-0.0 -0.0 -0.0 -0.0 0.0 1.0 0.0 1:0.0 2:0.05263158 3:0.0 4:0.0 5:0.0 6:0.05263158 7:0.47368422 8:0.05263158 9:0.36842105 
-1.0 -0.0 -1.0 -1.0 1.0 1.0 0.0 1:0.0 2:0.06666667 3:0.0 4:0.0 5:0.0 6:0.36666667 7:0.3 8:0.033333335 9:0.23333333 
-1.0 -0.0 -0.0 -1.0 1.0 1.0 0.0 1:0.02631579 2:0.078947365 3:0.0 4:0.02631579 5:0.0 6:0.39473686 7:0.36842105 8:0.05263158 9:0.05263158 
-1.0 -1.0 -0.0 -1.0 0.0 1.0 1.0 1:0.0 2:0.125 3:0.125 4:0.0 5:0.0 6:0.125 7:0.375 8:0.0 9:0.25 
-0.0 -0.0 -0.0 -1.0 0.0 0.774263493906892 0.0 1:0.0 2:0.08 3:0.04 4:0.0 5:0.0 6:0.4 7:0.4 8:0.0 9:0.08 
-0.0 -0.0 -1.0 -1.0 0.0 0.0 0.0 1:0.0 2:0.0 3:0.0 4:0.14285715 5:0.0 6:0.42857143 7:0.42857143 8:0.0 9:0.0 
-1.0 -1.0 -1.0 -1.0 1.0 1.0 1.0 1:0.0 2:0.28125 3:0.40625 4:0.03125 5:0.0 6:0.0625 7:0.15625 8:0.0 9:0.0625 
-0.0 -0.0 -0.0 -0.0 1.0 0.0 0.0 1:0.0 2:0.0 3:0.0625 4:0.0625 5:0.0 6:0.125 7:0.5 8:0.1875 9:0.0625 
-0.0 -0.0 -0.0 -1.0 0.0 0.0 0.0 1:0.0 2:0.07692308 3:0.07692308 4:0.0 5:0.0 6:0.30769232 7:0.53846157 8:0.0 9:0.0 
-0.0 -1.0 -0.0 -0.0 0.0 0.0 0.0 1:0.03125 2:0.03125 3:0.1875 4:0.03125 5:0.0 6:0.03125 7:0.5625 8:0.03125 9:0.09375 
-0.0 -0.0 -0.0 -1.0 0.0 0.0 0.0 1:0.0 2:0.078947365 3:0.0 4:0.02631579 5:0.0 6:0.31578946 7:0.5263158 8:0.0 9:0.05263158 
-0.0 -0.0 -0.0 -0.0 0.0 1.0 0.0 1:0.0 2:0.0 3:0.0 4:0.0 5:0.0 6:0.08695652 7:0.5217391 8:0.0 9:0.39130434 
-0.0 -0.0 -0.0 -1.0 0.0 0.0 0.0 1:0.0 2:0.078947365 3:0.0 4:0.02631579 5:0.0 6:0.31578946 7:0.5263158 8:0.0 9:0.05263158 
-0.0 -0.0 -0.0 -1.0 0.0 0.0 0.0 1:0.0 2:0.06666667 3:0.0 4:0.06666667 5:0.0 6:0.33333334 7:0.44444445 8:0.044444446 9:0.044444446 
-1.0 -1.0 -0.0 -0.0 1.0 1.0 1.0 1:0.08695652 2:0.13043478 3:0.04347826 4:0.0 5:0.0 6:0.04347826 7:0.4347826 8:0.13043478 9:0.13043478 
-1.0 -1.0 -0.0 -0.0 1.0 1.0 0.7842693323579967 1:0.0 2:0.1 3:0.1 4:0.0 5:0.0 6:0.1 7:0.4 8:0.2 9:0.1 
-1.0 -0.0 -0.0 -1.0 0.0 1.0 0.0 1:0.0 2:0.25 3:0.0 4:0.05 5:0.0 6:0.15 7:0.45 8:0.0 9:0.1 
-0.0 -0.0 -0.0 -0.0 1.0 0.0 0.0 1:0.0 2:0.0 3:0.0 4:0.0 5:0.0 6:0.1 7:0.6 8:0.25 9:0.05 
-1.0 -1.0 -1.0 -1.0 1.0 1.0 1.0 1:0.0625 2:0.125 3:0.125 4:0.0625 5:0.0 6:0.125 7:0.3125 8:0.0625 9:0.125 
-0.0 -0.0 -0.0 -0.0 1.0 0.0 0.0 1:0.0 2:0.0 3:0.0 4:0.0 5:0.0 6:0.1 7:0.6 8:0.25 9:0.05 
-0.0 -0.0 -0.0 -0.0 1.0 0.0 0.0 1:0.0 2:0.06666667 3:0.06666667 4:0.0 5:0.0 6:0.06666667 7:0.53333336 8:0.26666668 9:0.0 
-0.0 -0.0 -0.0 -0.0 1.0 0.0 0.0 1:0.0 2:0.0 3:0.0 4:0.0 5:0.0 6:0.083333336 7:0.6666667 8:0.25 9:0.0 
-1.0 -1.0 -0.0 -1.0 0.0 1.0 0.0 1:0.0 2:0.11764706 3:0.05882353 4:0.0 5:0.0 6:0.1764706 7:0.4117647 8:0.0 9:0.23529412 
-0.0 -0.0 -0.0 -1.0 0.0 0.0 0.0 1:0.0 2:0.035714287 3:0.0 4:0.071428575 5:0.0 6:0.2857143 7:0.53571427 8:0.035714287 9:0.035714287 
-0.0 -0.0 -0.0 -1.0 0.0 0.0 0.0 1:0.0 2:0.0952381 3:0.0 4:0.0 5:0.0 6:0.35714287 7:0.47619048 8:0.023809524 9:0.04761905 
-1.0 -1.0 -1.0 -1.0 1.0 1.0 1.0 1:0.0 2:0.14285715 3:0.14285715 4:0.0 5:0.0 6:0.42857143 7:0.14285715 8:0.0 9:0.14285715 
-1.0 -1.0 -1.0 -1.0 1.0 1.0 1.0 1:0.0 2:0.11111111 3:0.33333334 4:0.11111111 5:0.0 6:0.0 7:0.22222222 8:0.11111111 9:0.11111111 
-0.0 -0.0 -0.0 -1.0 0.0 0.0 0.0 1:0.0 2:0.09756097 3:0.0 4:0.024390243 5:0.0 6:0.29268292 7:0.5365854 8:0.048780486 9:0.0 
-0.0 -0.0 -0.0 -1.0 0.0 1.0 0.0 1:0.0 2:0.04 3:0.04 4:0.08 5:0.0 6:0.16 7:0.44 8:0.04 9:0.2 
-1.0 -1.0 -1.0 -1.0 1.0 1.0 1.0 1:0.125 2:0.125 3:0.125 4:0.0 5:0.0 6:0.0 7:0.125 8:0.0 9:0.5 
-1.0 -1.0 -1.0 -1.0 1.0 1.0 1.0 1:0.0 2:0.4 3:0.0 4:0.0 5:0.0 6:0.4 7:0.2 8:0.0 9:0.0 
-0.0 -0.0 -0.0 -0.0 0.0 1.0 0.0 1:0.0 2:0.09090909 3:0.0 4:0.0 5:0.0 6:0.13636364 7:0.5 8:0.0 9:0.27272728 
-1.0 -1.0 -1.0 -1.0 0.0 1.0 0.0 1:0.0 2:0.08 3:0.0 4:0.04 5:0.0 6:0.24 7:0.32 8:0.0 9:0.32 
-1.0 -1.0 -1.0 -1.0 1.0 1.0 0.0 1:0.0 2:0.23076923 3:0.0 4:0.0 5:0.0 6:0.46153846 7:0.30769232 8:0.0 9:0.0 
-1.0 -1.0 -1.0 -1.0 1.0 1.0 1.0 1:0.0 2:0.2857143 3:0.0 4:0.0 5:0.0 6:0.2857143 7:0.2857143 8:0.0952381 9:0.04761905 
-1.0 -1.0 -1.0 -1.0 0.0 1.0 1.0 1:0.0 2:0.21052632 3:0.05263158 4:0.10526316 5:0.0 6:0.2631579 7:0.31578946 8:0.0 9:0.05263158 
-1.0 -0.0 -1.0 -1.0 1.0 1.0 0.0 1:0.019607844 2:0.078431375 3:0.0 4:0.039215688 5:0.0 6:0.43137255 7:0.3529412 8:0.039215688 9:0.039215688 
-1.0 -1.0 -1.0 -1.0 1.0 1.0 1.0 1:0.033333335 2:0.1 3:0.0 4:0.1 5:0.0 6:0.4 7:0.3 8:0.033333335 9:0.033333335 
-1.0 -0.6593614216750839 -0.0 -0.0 1.0 1.0 1.0 1:0.0 2:0.0 3:0.0 4:0.0 5:0.0 6:0.09090909 7:0.27272728 8:0.54545456 9:0.09090909 
-1.0 -1.0 -1.0 -1.0 1.0 1.0 1.0 1:0.0 2:0.09090909 3:0.09090909 4:0.0 5:0.0 6:0.18181819 7:0.18181819 8:0.0 9:0.45454547 
-1.0 -0.0 -0.0 -1.0 0.0 0.0 0.0 1:0.0 2:0.11764706 3:0.019607844 4:0.019607844 5:0.0 6:0.37254903 7:0.4117647 8:0.039215688 9:0.019607844 
-1.0 -1.0 -1.0 -1.0 1.0 1.0 1.0 1:0.0 2:0.028571429 3:0.0 4:0.0 5:0.0 6:0.028571429 7:0.22857143 8:0.4857143 9:0.22857143 
-0.0 -0.0 -0.0 -0.0 1.0 0.0 0.0 1:0.0 2:0.0 3:0.0 4:0.02631579 5:0.0 6:0.23684211 7:0.5263158 8:0.18421052 9:0.02631579 
-1.0 -1.0 -1.0 -1.0 1.0 1.0 1.0 1:0.0 2:0.09677419 3:0.032258064 4:0.0 5:0.0 6:0.0 7:0.19354838 8:0.58064514 9:0.09677419 
-0.0 -0.0 -0.0 -0.0 1.0 0.0 0.0 1:0.0 2:0.041666668 3:0.0 4:0.0 5:0.0 6:0.0 7:0.5 8:0.33333334 9:0.125 
-1.0 -1.0 -1.0 -1.0 1.0 1.0 1.0 1:0.0 2:0.15789473 3:0.05263158 4:0.0 5:0.0 6:0.05263158 7:0.2631579 8:0.05263158 9:0.42105263 
-0.0 -0.0 -0.0 -0.0 1.0 0.0 0.0 1:0.0 2:0.0 3:0.045454547 4:0.0 5:0.0 6:0.18181819 7:0.5 8:0.27272728 9:0.0 
-0.0 -1.0 -1.0 -0.0 0.0 1.0 1.0 1:0.07692308 2:0.0 3:0.07692308 4:0.15384616 5:0.0 6:0.15384616 7:0.46153846 8:0.0 9:0.07692308 
-1.0 -1.0 -1.0 -1.0 1.0 1.0 0.0 1:0.0 2:0.0 3:0.0 4:0.0 5:0.0 6:0.42857143 7:0.23809524 8:0.0952381 9:0.23809524 
-0.0 -0.0 -0.0 -0.0 1.0 0.0 0.0 1:0.0 2:0.0 3:0.0 4:0.0 5:0.0 6:0.125 7:0.6875 8:0.1875 9:0.0 
-1.0 -0.0 -0.0 -1.0 0.0 1.0 0.0 1:0.0 2:0.13636364 3:0.0 4:0.0 5:0.0 6:0.36363637 7:0.4090909 8:0.0 9:0.09090909 
-0.0 -0.0 -0.0 -0.0 1.0 0.0 0.0 1:0.0 2:0.0 3:0.0 4:0.0 5:0.0 6:0.0 7:0.6666667 8:0.33333334 9:0.0 
-1.0 -1.0 -1.0 -1.0 1.0 1.0 1.0 1:0.0 2:0.04347826 3:0.13043478 4:0.0 5:0.0 6:0.04347826 7:0.08695652 8:0.17391305 9:0.5217391 
-0.0 -0.0 -0.0 -0.0 1.0 0.0 0.0 1:0.05263158 2:0.0 3:0.05263158 4:0.0 5:0.0 6:0.0 7:0.5263158 8:0.21052632 9:0.15789473 
-1.0 -1.0 -0.0 -1.0 0.0 1.0 0.0 1:0.0 2:0.13207547 3:0.11320755 4:0.018867925 5:0.0 6:0.3018868 7:0.3773585 8:0.018867925 9:0.03773585 
-0.0 -0.0 -0.0 -1.0 0.0 0.0 0.0 1:0.0 2:0.0 3:0.0 4:0.0 5:0.0 6:0.4117647 7:0.5294118 8:0.0 9:0.05882353 
-1.0 -1.0 -1.0 -1.0 1.0 1.0 1.0 1:0.033333335 2:0.0 3:0.0 4:0.0 5:0.0 6:0.26666668 7:0.2 8:0.46666667 9:0.033333335 
-1.0 -1.0 -1.0 -1.0 1.0 1.0 1.0 1:0.0 2:0.035714287 3:0.035714287 4:0.25 5:0.0 6:0.2857143 7:0.25 8:0.071428575 9:0.071428575 
-0.0 -0.0 -0.0 -1.0 0.0 0.0 0.0 1:0.0 2:0.0 3:0.0 4:0.01923077 5:0.0 6:0.48076922 7:0.5 8:0.0 9:0.0 
-0.0 -0.0 -0.0 -0.0 1.0 0.0 0.0 1:0.0 2:0.0625 3:0.0 4:0.0 5:0.0 6:0.125 7:0.4375 8:0.3125 9:0.0625 
-1.0 -1.0 -1.0 -1.0 1.0 1.0 1.0 1:0.09090909 2:0.18181819 3:0.0 4:0.0 5:0.0 6:0.45454547 7:0.27272728 8:0.0 9:0.0 
-1.0 -1.0 -1.0 -1.0 1.0 1.0 1.0 1:0.0 2:0.20454545 3:0.022727273 4:0.022727273 5:0.0 6:0.36363637 7:0.29545453 8:0.022727273 9:0.06818182 
-0.0 -1.0 -0.0 -0.0 0.0 1.0 1.0 1:0.0 2:0.0 3:0.09090909 4:0.0 5:0.0 6:0.045454547 7:0.36363637 8:0.0 9:0.5 
-1.0 -1.0 -1.0 -1.0 1.0 1.0 1.0 1:0.0 2:0.0 3:0.11764706 4:0.0 5:0.0 6:0.0 7:0.1764706 8:0.0 9:0.7058824 
-1.0 -0.0 -0.0 -1.0 0.0 1.0 0.0 1:0.0 2:0.21052632 3:0.0 4:0.0 5:0.0 6:0.31578946 7:0.36842105 8:0.0 9:0.10526316 
-0.0 -0.0 -0.0 -0.0 1.0 0.0 0.0 1:0.0 2:0.04347826 3:0.0 4:0.0 5:0.0 6:0.13043478 7:0.5217391 8:0.2173913 9:0.08695652 
-0.0 -0.0 -0.0 -0.0 1.0 0.0 0.0 1:0.11111111 2:0.0 3:0.0 4:0.0 5:0.0 6:0.11111111 7:0.5555556 8:0.22222222 9:0.0 
-0.0 -0.0 -0.0 -0.0 1.0 0.0 0.0 1:0.0 2:0.04347826 3:0.0 4:0.0 5:0.0 6:0.13043478 7:0.5217391 8:0.2173913 9:0.08695652 
-0.0 -0.0 -1.0 -1.0 0.0 1.0 0.0 1:0.0 2:0.0 3:0.0 4:0.07692308 5:0.0 6:0.3846154 7:0.30769232 8:0.0 9:0.23076923 
-1.0 -1.0 -1.0 -1.0 1.0 1.0 1.0 1:0.04347826 2:0.17391305 3:0.0 4:0.04347826 5:0.0 6:0.3043478 7:0.2173913 8:0.0 9:0.2173913 
-1.0 -1.0 -0.0 -1.0 1.0 1.0 1.0 1:0.0 2:0.030303031 3:0.030303031 4:0.0 5:0.0 6:0.21212122 7:0.27272728 8:0.33333334 9:0.121212125 
-1.0 -1.0 -1.0 -1.0 1.0 1.0 1.0 1:0.0 2:0.0 3:0.0 4:0.11764706 5:0.0 6:0.05882353 7:0.23529412 8:0.0 9:0.5882353 
-0.0 -0.0 -0.0 -0.0 0.0 1.0 0.0 1:0.0 2:0.0 3:0.13333334 4:0.0 5:0.0 6:0.0 7:0.6 8:0.0 9:0.26666668 
-0.0 -0.0 -0.0 -1.0 0.0 0.0 0.0 1:0.0 2:0.0 3:0.025 4:0.0 5:0.0 6:0.375 7:0.525 8:0.0 9:0.075 
-0.0 -0.0 -0.0 -1.0 0.0 1.0 0.0 1:0.0 2:0.0 3:0.0625 4:0.0 5:0.0 6:0.3125 7:0.4375 8:0.0 9:0.1875 
-1.0 -1.0 -1.0 -1.0 1.0 1.0 1.0 1:0.0 2:0.0 3:0.11764706 4:0.0 5:0.0 6:0.0 7:0.1764706 8:0.0 9:0.7058824 
-0.0 -0.0 -0.0 -0.0 1.0 0.0 0.0 1:0.0 2:0.0 3:0.0 4:0.0 5:0.0 6:0.0952381 7:0.52380955 8:0.1904762 9:0.1904762 
-1.0 -1.0 -1.0 -1.0 1.0 1.0 1.0 1:0.0 2:0.10526316 3:0.15789473 4:0.05263158 5:0.0 6:0.15789473 7:0.36842105 8:0.05263158 9:0.10526316 
-1.0 -0.0 -0.0 -1.0 0.0 0.0 0.0 1:0.0 2:0.21875 3:0.0 4:0.0 5:0.0 6:0.28125 7:0.4375 8:0.03125 9:0.03125 
-1.0 -1.0 -1.0 -1.0 1.0 1.0 1.0 1:0.0 2:0.33333334 3:0.0 4:0.11111111 5:0.0 6:0.0 7:0.22222222 8:0.22222222 9:0.11111111 
-0.0 -1.0 -0.0 -1.0 0.0 0.0 1.0 1:0.09090909 2:0.0 3:0.09090909 4:0.0 5:0.0 6:0.27272728 7:0.45454547 8:0.0 9:0.09090909 
-0.0 -0.0 -0.0 -0.0 1.0 0.0 0.0 1:0.0 2:0.0 3:0.0 4:0.0 5:0.0 6:0.0 7:0.55 8:0.45 9:0.0 
-0.0 -0.0 -0.0 -1.0 0.0 1.0 0.0 1:0.0 2:0.03125 3:0.0 4:0.03125 5:0.0 6:0.25 7:0.46875 8:0.0 9:0.21875 
-0.0 -1.0 -0.0 -0.0 0.0 0.0 0.0 1:0.0 2:0.0 3:0.16666667 4:0.0 5:0.0 6:0.055555556 7:0.5555556 8:0.055555556 9:0.16666667 
-0.0 -0.0 -0.0 -0.0 1.0 0.0 0.0 1:0.0 2:0.0 3:0.0 4:0.0 5:0.0 6:0.1 7:0.6 8:0.3 9:0.0 
-1.0 -1.0 -1.0 -1.0 1.0 1.0 1.0 1:0.0 2:0.1923077 3:0.03846154 4:0.0 5:0.0 6:0.42307693 7:0.30769232 8:0.0 9:0.03846154 
-1.0 -1.0 -0.0 -1.0 0.0 1.0 0.0 1:0.0 2:0.083333336 3:0.083333336 4:0.0 5:0.0 6:0.5 7:0.33333334 8:0.0 9:0.0 
-0.0 -0.0 -0.0 -0.0 1.0 0.0 0.0 1:0.0 2:0.033333335 3:0.0 4:0.0 5:0.0 6:0.16666667 7:0.56666666 8:0.16666667 9:0.06666667 
-1.0 -0.0 -0.0 -1.0 0.0 0.0 0.0 1:0.0 2:0.14705883 3:0.0 4:0.0 5:0.0 6:0.44117647 7:0.38235295 8:0.0 9:0.029411765 
-0.0 -0.0 -0.0 -0.0 1.0 1.0 0.0 1:0.0 2:0.05882353 3:0.0 4:0.0 5:0.0 6:0.1764706 7:0.47058824 8:0.11764706 9:0.1764706 
-0.0 -0.0 -0.0 -0.0 1.0 0.0 0.0 1:0.0 2:0.0 3:0.0 4:0.0 5:0.0 6:0.11111111 7:0.5 8:0.3888889 9:0.0 
-0.0 -0.0 -0.0 -1.0 0.0 1.0 0.0 1:0.0 2:0.06122449 3:0.0 4:0.020408163 5:0.0 6:0.3877551 7:0.3877551 8:0.0 9:0.14285715 
-0.0 -0.0 -0.0 -1.0 0.0 0.0 0.0 1:0.0 2:0.08695652 3:0.0 4:0.0 5:0.0 6:0.39130434 7:0.47826087 8:0.0 9:0.04347826 
-1.0 -1.0 -1.0 -1.0 1.0 1.0 1.0 1:0.0 2:0.31578946 3:0.0 4:0.0 5:0.0 6:0.10526316 7:0.21052632 8:0.2631579 9:0.10526316 
-0.0 -0.0 -0.0 -1.0 0.0 0.0 0.0 1:0.0 2:0.037037037 3:0.0 4:0.037037037 5:0.0 6:0.25925925 7:0.5185185 8:0.0 9:0.14814815 
-0.0 -0.0 -0.0 -0.7950023913104641 0.0 0.0 0.0 1:0.03125 2:0.0 3:0.0 4:0.0 5:0.0 6:0.375 7:0.59375 8:0.0 9:0.0 
-1.0 -1.0 -0.0 -1.0 0.0 1.0 0.0 1:0.0 2:0.11764706 3:0.05882353 4:0.0 5:0.0 6:0.1764706 7:0.4117647 8:0.0 9:0.23529412 
-0.0 -0.0 -0.0 -1.0 0.0 1.0 0.0 1:0.0 2:0.0 3:0.071428575 4:0.0 5:0.0 6:0.21428572 7:0.42857143 8:0.0 9:0.2857143 
-0.0 -0.0 -0.0 -0.0 1.0 0.0 0.0 1:0.0 2:0.0 3:0.0 4:0.0 5:0.0 6:0.083333336 7:0.5833333 8:0.16666667 9:0.16666667 
-0.0 -0.0 -0.0 -1.0 0.0 0.0 0.0 1:0.0 2:0.03448276 3:0.03448276 4:0.01724138 5:0.0 6:0.31034482 7:0.4827586 8:0.01724138 9:0.10344828 
-1.0 -1.0 -1.0 -1.0 1.0 1.0 1.0 1:0.0 2:0.125 3:0.0 4:0.125 5:0.0 6:0.375 7:0.25 8:0.0 9:0.125 
-0.0 -1.0 -0.0 -1.0 0.0 1.0 0.0 1:0.0 2:0.030303031 3:0.060606062 4:0.030303031 5:0.0 6:0.18181819 7:0.3939394 8:0.030303031 9:0.27272728 
-1.0 -1.0 -1.0 -1.0 1.0 1.0 1.0 1:0.029411765 2:0.11764706 3:0.029411765 4:0.0 5:0.0 6:0.14705883 7:0.11764706 8:0.44117647 9:0.11764706 
-1.0 -1.0 -1.0 -1.0 1.0 1.0 1.0 1:0.07692308 2:0.30769232 3:0.07692308 4:0.0 5:0.0 6:0.23076923 7:0.15384616 8:0.0 9:0.15384616 
-1.0 -1.0 -1.0 -1.0 1.0 1.0 1.0 1:0.0 2:0.31578946 3:0.0 4:0.0 5:0.0 6:0.10526316 7:0.21052632 8:0.2631579 9:0.10526316 
-0.0 -0.0 -0.0 -1.0 0.0 0.0 0.0 1:0.0 2:0.083333336 3:0.0 4:0.041666668 5:0.0 6:0.33333334 7:0.41666666 8:0.041666668 9:0.083333336 
-0.0 -0.0 -0.0 -0.0 0.0 1.0 0.0 1:0.0 2:0.0 3:0.071428575 4:0.0 5:0.0 6:0.14285715 7:0.5 8:0.071428575 9:0.21428572 
-0.0 -0.0 -0.0 -1.0 1.0 1.0 0.0 1:0.0 2:0.0 3:0.0 4:0.0 5:0.0 6:0.25 7:0.33333334 8:0.33333334 9:0.083333336 
-1.0 -1.0 -1.0 -1.0 0.0 1.0 1.0 1:0.0 2:0.125 3:0.0 4:0.125 5:0.0 6:0.125 7:0.375 8:0.0 9:0.25 
-0.0 -0.0 -0.0 -1.0 0.0 0.0 0.0 1:0.0 2:0.046511628 3:0.023255814 4:0.023255814 5:0.0 6:0.41860464 7:0.4651163 8:0.0 9:0.023255814 
-1.0 -1.0 -1.0 -1.0 1.0 1.0 1.0 1:0.0 2:0.13636364 3:0.0 4:0.0 5:0.0 6:0.6818182 7:0.18181819 8:0.0 9:0.0 
-1.0 -1.0 -1.0 -1.0 1.0 1.0 1.0 1:0.0 2:0.22580644 3:0.0 4:0.0 5:0.0 6:0.4516129 7:0.29032257 8:0.032258064 9:0.0 
-1.0 -0.0 -1.0 -1.0 1.0 1.0 0.0 1:0.0 2:0.074074075 3:0.0 4:0.18518518 5:0.0 6:0.37037036 7:0.33333334 8:0.0 9:0.037037037 
-0.0 -0.0 -0.0 -1.0 1.0 0.0 0.0 1:0.0 2:0.0 3:0.060606062 4:0.030303031 5:0.0 6:0.27272728 7:0.45454547 8:0.15151516 9:0.030303031 
-0.0 -0.0 -0.0 -1.0 0.0 0.0 0.0 1:0.0 2:0.020408163 3:0.0 4:0.020408163 5:0.0 6:0.3877551 7:0.5714286 8:0.0 9:0.0 
-1.0 -1.0 -1.0 -0.0 1.0 1.0 1.0 1:0.0 2:0.125 3:0.125 4:0.0625 5:0.0 6:0.0 7:0.3125 8:0.3125 9:0.0625 
-1.0 -0.0 -1.0 -1.0 1.0 1.0 0.0 1:0.0 2:0.125 3:0.0 4:0.03125 5:0.0 6:0.5 7:0.3125 8:0.0 9:0.03125 
-1.0 -1.0 -1.0 -1.0 1.0 1.0 1.0 1:0.5 2:0.11764706 3:0.05882353 4:0.0 5:0.0 6:0.0 7:0.23529412 8:0.029411765 9:0.05882353 
-0.0 -0.0 -0.0 -0.0 0.0 1.0 0.0 1:0.0 2:0.14285715 3:0.0 4:0.0 5:0.0 6:0.0 7:0.42857143 8:0.0 9:0.42857143 
-1.0 -1.0 -1.0 -1.0 1.0 1.0 1.0 1:0.022727273 2:0.022727273 3:0.47727272 4:0.022727273 5:0.0 6:0.022727273 7:0.27272728 8:0.0 9:0.1590909 
-0.0 -1.0 -0.0 -0.0 0.0 1.0 0.0 1:0.0 2:0.0 3:0.22222222 4:0.0 5:0.0 6:0.037037037 7:0.5185185 8:0.0 9:0.22222222 
-1.0 -1.0 -1.0 -1.0 0.0 1.0 1.0 1:0.0 2:0.0625 3:0.3125 4:0.0 5:0.0 6:0.1875 7:0.375 8:0.0 9:0.0625 
-0.0 -0.0 -0.0 -1.0 0.0 0.0 0.0 1:0.0 2:0.0 3:0.0 4:0.0 5:0.0 6:0.5833333 7:0.3888889 8:0.0 9:0.027777778 
-0.0 -0.0 -0.0 -0.0 1.0 0.0 0.0 1:0.0 2:0.0 3:0.071428575 4:0.0 5:0.0 6:0.14285715 7:0.5 8:0.21428572 9:0.071428575 
-0.0 -1.0 -0.0 -0.0 0.0 1.0 1.0 1:0.04347826 2:0.08695652 3:0.2173913 4:0.0 5:0.0 6:0.0 7:0.5217391 8:0.0 9:0.13043478 
-0.0 -0.0 -0.0 -1.0 1.0 1.0 0.0 1:0.0 2:0.0 3:0.0 4:0.0 5:0.0 6:0.1875 7:0.375 8:0.3125 9:0.125 
-0.0 -1.0 -0.0 -0.0 0.0 1.0 0.0 1:0.041666668 2:0.0 3:0.083333336 4:0.0 5:0.0 6:0.083333336 7:0.45833334 8:0.083333336 9:0.25 
-0.0 -0.0 -0.4724289325387886 -1.0 0.0010741090169472623 0.0 0.0 1:0.0 2:0.0 3:0.0 4:0.025641026 5:0.0 6:0.5897436 7:0.33333334 8:0.0 9:0.051282052 
-0.0 -0.0 -0.0 -0.0 0.0 1.0 0.0 1:0.0 2:0.04347826 3:0.0 4:0.0 5:0.0 6:0.0 7:0.6086956 8:0.0 9:0.3478261 
-1.0 -1.0 -0.07816808190785303 -1.0 1.0 1.0 1.0 1:0.0 2:0.15384616 3:0.07692308 4:0.0 5:0.0 6:0.23076923 7:0.30769232 8:0.23076923 9:0.0 
-0.0 -0.0 -0.0 -0.0 0.0 1.0 0.0 1:0.0 2:0.0 3:0.0 4:0.09090909 5:0.0 6:0.09090909 7:0.54545456 8:0.0 9:0.27272728 
-1.0 -1.0 -1.0 -1.0 1.0 1.0 1.0 1:0.0 2:0.21875 3:0.03125 4:0.03125 5:0.0 6:0.40625 7:0.28125 8:0.0 9:0.03125 
-1.0 -1.0 -1.0 -1.0 1.0 1.0 1.0 1:0.0 2:0.03846154 3:0.0 4:0.0 5:0.0 6:0.07692308 7:0.30769232 8:0.07692308 9:0.5 
-1.0 -1.0 -1.0 -1.0 0.0 1.0 1.0 1:0.0 2:0.23529412 3:0.05882353 4:0.05882353 5:0.0 6:0.23529412 7:0.4117647 8:0.0 9:0.0 
-1.0 -1.0 -1.0 -1.0 1.0 1.0 1.0 1:0.0 2:0.0952381 3:0.0 4:0.0 5:0.0 6:0.04761905 7:0.0952381 8:0.0 9:0.7619048 
-1.0 -0.0 -0.0 -1.0 0.0 1.0 1.0 1:0.03448276 2:0.10344828 3:0.0 4:0.0 5:0.0 6:0.1724138 7:0.37931034 8:0.0 9:0.31034482 
-0.0 -0.0 -0.15878379958289782 -1.0 0.0 1.0 0.0 1:0.0 2:0.115384616 3:0.0 4:0.07692308 5:0.0 6:0.30769232 7:0.42307693 8:0.0 9:0.07692308 
-1.0 -1.0 -1.0 -1.0 0.568083363442718 1.0 1.0 1:0.0 2:0.0 3:0.0 4:0.0 5:0.0 6:0.0 7:0.2 8:0.0 9:0.8 
-0.0 -1.0 -1.0 -1.0 0.0 1.0 1.0 1:0.0 2:0.0 3:0.0625 4:0.0 5:0.0 6:0.0625 7:0.3125 8:0.03125 9:0.53125 
-1.0 -1.0 -1.0 -1.0 1.0 1.0 1.0 1:0.035714287 2:0.2857143 3:0.0 4:0.035714287 5:0.0 6:0.17857143 7:0.2857143 8:0.14285715 9:0.035714287 
-0.0 -0.0 -1.0 -1.0 1.0 1.0 0.0 1:0.0 2:0.055555556 3:0.0 4:0.055555556 5:0.0 6:0.16666667 7:0.3888889 8:0.055555556 9:0.2777778 
-0.0 -0.17475228074958427 -0.0 -1.0 1.0 1.0 0.0 1:0.04761905 2:0.0 3:0.04761905 4:0.0 5:0.0 6:0.3809524 7:0.33333334 8:0.14285715 9:0.04761905 
-0.0 -0.0 -0.0 -1.0 0.0 0.0 0.0 1:0.0 2:0.04761905 3:0.0 4:0.0 5:0.0 6:0.3809524 7:0.5555556 8:0.0 9:0.015873017 
-0.0 -0.0 -1.0 -1.0 0.0 1.0 0.0 1:0.0 2:0.0 3:0.045454547 4:0.09090909 5:0.0 6:0.22727273 7:0.4090909 8:0.045454547 9:0.18181819 
-0.0 -0.0 -0.0 -1.0 0.0 0.0 0.0 1:0.0 2:0.027027028 3:0.0 4:0.0 5:0.0 6:0.27027026 7:0.5135135 8:0.027027028 9:0.16216215 
-0.0 -1.0 -1.0 -1.0 0.0 1.0 0.0 1:0.0 2:0.03846154 3:0.03846154 4:0.03846154 5:0.0 6:0.30769232 7:0.34615386 8:0.0 9:0.23076923 
-0.0 -1.0 -0.04567145661261657 -0.0 0.0 1.0 1.0 1:0.0 2:0.0 3:0.09090909 4:0.0 5:0.0 6:0.0 7:0.36363637 8:0.0 9:0.54545456 
-0.0 -1.0 -0.0 -0.0 1.0 1.0 0.0 1:0.0 2:0.060606062 3:0.121212125 4:0.0 5:0.0 6:0.0 7:0.4848485 8:0.21212122 9:0.121212125 
-0.0 -0.0 -0.0 -0.0 0.0 1.0 0.0 1:0.0 2:0.07692308 3:0.0 4:0.0 5:0.0 6:0.07692308 7:0.46153846 8:0.07692308 9:0.30769232 
-0.0 -0.0 -0.0 -1.0 0.0 1.0 0.0 1:0.0 2:0.05 3:0.0 4:0.0 5:0.0 6:0.25 7:0.4 8:0.0 9:0.3 
-1.0 -0.0 -0.0 -1.0 0.0 1.0 0.0 1:0.0 2:0.15384616 3:0.0 4:0.0 5:0.0 6:0.3846154 7:0.3846154 8:0.0 9:0.07692308 
-0.0 -0.0 -0.0 -1.0 0.0 1.0 0.0 1:0.0 2:0.14285715 3:0.0 4:0.0 5:0.0 6:0.14285715 7:0.42857143 8:0.0 9:0.2857143 
-0.0 -0.0 -0.0 -0.0 0.0 0.0 0.5995494417881461 1:0.125 2:0.0625 3:0.0 4:0.0 5:0.0 6:0.0 7:0.625 8:0.125 9:0.0625 
-1.0 -0.0 -0.0 -1.0 0.0 1.0 0.0 1:0.0 2:0.15384616 3:0.0 4:0.0 5:0.0 6:0.3846154 7:0.3846154 8:0.0 9:0.07692308 
-1.0 -1.0 -1.0 -1.0 1.0 1.0 1.0 1:0.0 2:0.16666667 3:0.0 4:0.0 5:0.0 6:0.22222222 7:0.055555556 8:0.3888889 9:0.16666667 
-0.6655290707057182 -1.0 -1.0 -1.0 1.0 1.0 1.0 1:0.0 2:0.0 3:0.071428575 4:0.0 5:0.0 6:0.071428575 7:0.2857143 8:0.035714287 9:0.53571427 
-0.0 -0.0 -0.0 -1.0 1.0 0.0 0.0 1:0.0 2:0.06122449 3:0.0 4:0.0 5:0.0 6:0.3265306 7:0.36734694 8:0.2244898 9:0.020408163 
-0.0 -1.0 -1.0 -1.0 0.0 0.0 0.0 1:0.0 2:0.0 3:0.083333336 4:0.16666667 5:0.0 6:0.33333334 7:0.41666666 8:0.0 9:0.0 
-0.0 -0.0 -0.0 -0.0 1.0 0.0 0.0 1:0.08 2:0.0 3:0.0 4:0.12 5:0.0 6:0.08 7:0.56 8:0.12 9:0.04 
-0.0 -0.0 -0.0 -1.0 1.0 0.0 0.0 1:0.0 2:0.019607844 3:0.0 4:0.0 5:0.0 6:0.3529412 7:0.47058824 8:0.13725491 9:0.019607844 
-0.0 -0.0 -0.0 -0.0 0.0 1.0 0.0 1:0.0 2:0.0 3:0.071428575 4:0.0 5:0.0 6:0.14285715 7:0.5 8:0.071428575 9:0.21428572 
-0.0 -0.0 -1.0 -0.0 1.0 1.0 0.0 1:0.0 2:0.0 3:0.0 4:0.083333336 5:0.0 6:0.083333336 7:0.41666666 8:0.083333336 9:0.33333334 
-1.0 -1.0 -1.0 -1.0 -1.0 1.0 0.0 1:0.0 2:0.04761905 3:0.0 4:0.0 5:0.0 6:0.3809524 7:0.1904762 8:0.2857143 9:0.0952381 
-1.0 -0.9089150058703158 -1.0 -1.0 -0.0 1.0 1.0 1:0.071428575 2:0.071428575 3:0.0 4:0.0 5:0.0 6:0.14285715 7:0.0 8:0.42857143 9:0.2857143 
